2704 64
15429 0.7620843 -0.3090747 0.68467534 0.12039626 -0.7623361 -1.8276545 0.514903 0.22979026 -1.6107259 -0.7043414 0.3450055 -0.93154556 -0.73486406 -0.32370225 -0.39219347 0.22060253 0.23822635 -1.0793443 -0.0079002865 0.86069757 0.15053573 1.3087445 1.0094931 -0.5846606 1.761828 1.3152257 -0.85362196 0.15486999 0.29634187 -1.365318 -0.0066573946 0.55925417 0.42791507 -1.1566595 -0.7147215 -0.3080011 -0.15907641 -0.4311077 -0.5313788 -1.2073271 -0.6475505 -0.7227596 -1.2100351 -0.5821049 0.53443587 0.22990355 -0.29997 -0.07677853 -0.16834845 1.4537762 0.9876453 0.4541416 0.28052968 0.3890575 -0.21753103 -0.39154792 0.44952792 -1.1890261 -0.97532886 0.8941432 -0.7756845 -0.52384454 -0.34531426 -1.6461613
10177 0.7231058 -0.38865504 0.6180466 0.095250025 -0.730088 -1.8724345 0.66343606 0.20745118 -1.6189431 -0.77106124 0.44419354 -0.86582065 -0.71784514 -0.36872005 -0.40490854 0.17942546 0.21074931 -0.969951 -0.018389443 0.9016846 0.09655746 1.1738758 1.0056444 -0.7159346 1.7263595 1.3184114 -0.7898445 0.14290173 0.33868256 -1.3108035 0.23366813 0.48553753 0.3938877 -1.1069489 -0.696332 -0.37828797 -0.1556799 -0.3397594 -0.5155301 -1.1859013 -0.5824719 -0.73342806 -1.1495346 -0.5753696 0.52196646 0.21774171 -0.25775367 -0.141085 -0.19997069 1.4338624 1.040649 0.49995324 0.24679835 0.3744736 -0.29451266 -0.36329356 0.4793731 -1.2274281 -0.9441456 0.84302413 -0.74445623 -0.45495287 -0.26750967 -1.6709094
6898 -0.17145444 0.20622587 2.0705962 -0.015359647 -1.3452423 -1.0655481 -0.13906485 -0.5068493 -0.32123256 -0.40638924 1.008493 -0.47913682 0.47571534 -1.2906239 -0.16682759 0.4129084 0.28402406 -0.38636473 -0.24815525 0.059188273 0.08542326 0.058060974 0.96819997 0.521111 0.72095 0.7524242 0.39412573 -0.36235115 0.8181177 -0.7522346 -0.70920354 0.049094897 -1.3530728 -0.5371151 -0.55951494 -0.6602731 -0.118564054 0.6755764 0.7186775 -0.41405377 0.67577195 0.90849847 -0.38961363 -1.1261325 0.83602846 -0.46547523 -0.18114369 -0.31155655 -0.05532453 -1.5028403 2.066374 -1.734616 -0.16711813 1.0753403 0.3138011 0.52244574 -0.6804176 -0.34494254 -1.1231874 0.28868398 0.23365717 0.7560781 0.71207684 0.093617536
2696 -0.5053363 -1.2005962 0.69285464 0.69352406 -1.232012 -0.88386554 -0.54523844 0.017275851 -1.675049 1.1238415 0.4810125 0.055692237 0.6691236 0.8067676 -0.13377382 0.89182746 -0.008776075 -0.6372018 -0.6266874 1.0399193 2.2527773 -0.39971322 1.0714047 -0.1782053 1.7490083 0.1882148 -0.9171166 -0.9662605 0.45276943 -1.2571908 -0.71554005 -0.78507197 0.7717173 -0.41428024 -0.28183016 0.19371367 -0.17405373 0.33524948 0.8408962 0.05454551 -0.5771205 0.14745007 0.8362651 -1.1509231 -1.005291 1.8550693 -0.18587777 0.34629872 -0.4144726 -1.3880538 2.5069075 0.52823216 0.23484755 0.8552613 -0.6224268 0.55369645 -1.1586659 0.014152962 -0.5173528 -0.40384528 -0.2564118 -0.9452156 -1.0957116 -0.9662889
5348 -0.5567436 -1.1453074 0.6494302 0.7420448 -1.1692296 -0.8907172 -0.45487493 0.04603169 -1.6027427 0.9692374 0.5668522 -0.0022121267 0.64324856 0.74629503 -0.18183433 0.9020949 -0.068282194 -0.684924 -0.6135342 1.1188803 2.3906617 -0.5600836 1.2297341 -0.20405917 1.6341475 0.099116825 -0.99303734 -0.9033808 0.54040647 -1.281538 -0.7251768 -0.73582095 0.71849 -0.31663686 -0.36622986 0.28952488 -0.15371446 0.33775613 0.86526227 0.059088964 -0.5119359 0.10525722 0.92774534 -1.0975078 -1.1715375 1.8743981 -0.238538 0.30459705 -0.36505535 -1.4929838 2.5483105 0.55228 0.1963803 0.85862267 -0.64272654 0.46477053 -1.2233729 -0.057981282 -0.56282675 -0.4597933 -0.2097833 -0.9194068 -1.0326812 -0.9483918
31353 -0.3280241 -0.4814846 1.539402 1.8122867 -1.9657621 -0.62468374 0.0804023 0.77497613 -0.7731336 -0.034117043 1.0815718 -0.5653371 -0.49864414 -0.59278977 -0.33354348 0.066591665 1.3556896 -0.12218765 -1.5359999 0.7660261 0.6093797 1.2084869 0.7217597 -0.50142145 0.8525918 0.37150344 -0.92251784 -0.38998705 -1.7997895 -0.2598897 1.0387337 0.48992556 -1.2717569 -0.89032304 -0.15699074 -0.94897175 0.37949702 0.27111307 1.082327 -0.34741843 -0.28898972 0.13668106 1.3114324 0.7310091 -0.3308198 -0.38462806 -0.050607853 1.8227007 0.102443896 -1.5403241 1.5802552 -0.75204885 -0.33109266 1.0870497 -0.4143391 -0.43955383 -0.932675 0.3037897 -1.8263062 1.2972314 0.2736853 0.15822233 0.10216198 -0.21394491
10531 -0.30309287 -0.49853516 1.5265692 1.7564449 -1.892143 -0.71850693 0.096583985 0.8018497 -0.71891177 -0.088623345 1.0568142 -0.63022023 -0.43245268 -0.6273008 -0.41471857 0.0428669 1.2376462 -0.21391484 -1.6447287 0.7581984 0.56226933 1.2243844 0.8073315 -0.3736826 0.864671 0.4022814 -0.9006075 -0.41399503 -1.9132609 -0.15459216 1.0423102 0.391539 -1.2897995 -0.82893604 -0.17973715 -0.88791335 0.3649036 0.27163455 1.0439625 -0.3465451 -0.25214815 0.116948485 1.2780777 0.692089 -0.4204224 -0.44699088 0.018054042 1.7499563 0.055646636 -1.6157619 1.6784165 -0.7315032 -0.32859734 1.0964614 -0.31590304 -0.4901044 -0.89669794 0.29832226 -1.8853338 1.4402678 0.2178999 0.13645819 0.072257355 -0.2631814
35 0.47180656 -0.88070536 1.0054699 0.6381474 0.11617982 -0.38905266 -1.3568983 -0.1889914 -0.6408021 0.534609 -0.5172214 -0.9700527 -0.44554088 -0.94170594 -0.6946488 -0.2420751 -0.26760533 -0.39271265 0.0947789 0.82167244 -0.46711054 -0.7017435 -0.16016442 0.2632837 -0.4134959 1.1056262 -0.39527795 -0.17353834 0.02658859 -0.013156232 -0.33359104 0.4990122 -0.5245867 -0.13732621 0.18359073 -0.20252481 -0.48019266 0.19539773 0.2962673 0.09360511 -1.1126779 -0.3781881 -0.4533403 0.04274616 0.21685615 -0.18154337 -0.40417442 0.35771707 -0.70189035 -0.1605085 0.7500967 -0.18327162 -0.024778182 0.98651314 -0.6283432 -0.062851965 -0.6813938 0.36463562 0.20945685 0.5264594 -0.4648819 0.60862076 0.5607152 -0.87258226
12631 -0.2301763 0.1871532 1.9872094 -0.059349403 -1.3403131 -1.0621827 -0.22117755 -0.5878635 -0.4068937 -0.38477066 0.93377733 -0.40845537 0.4671597 -1.2897062 -0.11353654 0.34009627 0.34234622 -0.306841 -0.14290464 -0.015246333 0.058236014 -0.057393502 0.88457716 0.5001184 0.6719369 0.83344716 0.37312672 -0.37816617 0.8089433 -0.90041023 -0.5870683 -0.0704945 -1.2890855 -0.42180237 -0.5103404 -0.70306987 -0.052298892 0.55476344 0.7572382 -0.35029578 0.5959986 0.91992533 -0.48404768 -1.1059098 0.88045293 -0.44312477 -0.16450922 -0.40517545 0.06612788 -1.4488153 2.001484 -1.6889157 -0.123236835 1.0798786 0.30267456 0.4256518 -0.7078758 -0.32873794 -1.0884516 0.22691292 0.32581708 0.7051729 0.7077505 0.1322324
643221 0.34512776 -0.1494471 1.3847255 -0.060313087 0.05654024 -0.9660187 -0.4491069 -0.6589729 -1.612666 -0.74832106 -0.54958606 -0.75309646 0.6517784 -0.11314499 0.026637923 0.2670988 -0.33058715 -1.5478269 0.2952843 -0.1531209 0.5809567 -0.84370536 0.9082936 -0.20220667 1.0472239 0.12738913 0.02128911 -0.31688192 -0.7799695 -0.8657919 0.3792065 0.36001033 -1.4719874 -0.2774007 -0.6176531 -1.0808706 -0.08667547 1.503468 -0.34447348 0.065915406 0.12708068 -0.07540729 -0.2588436 -1.5050029 0.4677292 0.9089037 0.5727511 -0.08837876 0.0149898585 -0.055001512 0.43414745 0.070701145 -1.1052685 1.1403062 0.13670178 0.62814134 -0.31208003 0.0631878 -1.2488494 1.0853597 -0.07623545 -0.15595302 0.4952368 0.02248896
58758 -0.2152188 -1.1701598 1.6699597 -1.3960696 0.31773573 0.054806273 -1.0539098 -1.4585848 -1.5194483 0.58488435 -0.06977659 -1.7820522 -1.0733984 -0.3031171 -1.5684521 -0.43134117 0.48950535 -1.2377214 0.3454491 0.25374168 -0.43179086 -0.11432343 0.76453054 0.23443566 0.48501128 2.544986 -2.0584908 -0.54604894 -1.0568733 -1.8328683 -0.584569 0.23411481 -1.0199001 0.47309154 -0.3139135 -0.63065463 0.3448251 0.4689106 -0.7290038 -0.08450737 -0.18598829 -0.8120486 -0.5531101 -0.07412798 0.64622843 0.60227877 0.16331032 -0.60056585 -0.715913 -0.451537 1.0789044 0.39193115 -0.6770803 0.5360585 -0.8832857 0.68912494 0.63677853 -0.9375124 -0.41092205 0.9775266 0.55718887 -0.5699864 0.3989602 0.12308732
576973 -0.15233102 -1.2210085 1.6566445 -1.4433585 0.25939944 -0.03592904 -1.0682288 -1.5232774 -1.7029347 0.45080954 -0.13808995 -1.661341 -1.0279002 -0.334739 -1.5047954 -0.5541125 0.56736135 -1.2976071 0.39404324 0.25169697 -0.59177727 -0.14213489 0.76074797 0.117578626 0.6402626 2.583947 -2.0107315 -0.501702 -1.0863434 -1.8794894 -0.5121732 0.26487756 -1.0423341 0.5902744 -0.42904374 -0.8594353 0.4230992 0.4956229 -0.7272695 -0.12822318 -0.07646855 -0.9050078 -0.6898383 0.018647349 0.75181687 0.5722493 0.22267811 -0.58622664 -0.4856282 -0.39800078 1.2340233 0.40722698 -0.9102628 0.5708206 -0.9522101 0.7097625 0.6466612 -1.071973 -0.5427891 1.1478952 0.5028753 -0.6358075 0.4361375 0.0865909
123556 -0.83684856 -0.055442937 0.13191411 1.1841697 -0.9021845 0.7414437 -0.2115666 -0.199089 0.2800309 0.009927228 0.8654192 -1.1419872 -0.5787079 -1.0566065 -1.2674688 0.72869134 -0.016100405 -1.6829345 -0.29292333 1.8726848 1.5772579 0.03841691 1.6163756 0.15011115 1.0229173 0.33405784 -0.29324898 -0.8150036 -0.17433235 -0.9160087 0.5906656 -1.1828847 -0.47130704 0.33917347 -0.62667847 0.8475011 -0.6774573 0.8803002 -0.11277009 -0.24167715 -0.60428166 0.930319 0.75695336 -0.7686302 0.16058539 -0.4371012 -0.3634465 0.88895345 -1.0120655 -1.3302145 1.5664872 0.11508258 1.1258798 1.6946367 -0.14756888 -1.3821489 -0.79341644 0.16916224 -0.7546507 -0.7089638 -0.42478362 -1.0131135 1.2283887 -0.97630686
50354 -0.7473929 0.038645905 0.1406634 1.3886384 -0.99533516 0.99298155 -0.22090423 -0.4284967 0.24212715 0.07664099 0.6761764 -1.1304384 -0.5116507 -1.0290313 -1.1793019 0.8986197 -0.15235353 -1.7752118 -0.40608758 1.7181363 1.4980015 -0.024692891 1.5781466 0.08023857 0.9587715 0.27748987 -0.20067659 -0.88487023 -0.29573798 -0.936213 0.6013017 -1.1816344 -0.5619501 0.14560334 -0.70684135 0.7323056 -0.9032319 1.0355611 -0.3705989 -0.18834567 -0.48380488 0.9417788 0.7693229 -0.7626282 -0.008902583 -0.5228593 -0.52929556 0.8235082 -0.9673658 -1.4265263 1.7925073 0.10710894 1.1673555 1.6970117 -0.23513426 -1.2939368 -0.915248 0.27151376 -0.81269246 -0.50862193 -0.35834706 -0.9017948 1.3336954 -0.7887499
210871 0.5271457 -0.62033516 0.58002806 0.41755062 -0.092040345 -0.34573793 -1.280171 0.08959907 -0.49386445 0.5298369 -0.71224093 -1.1583735 -0.3715127 -0.75387263 -0.69625807 -0.13780615 -0.15107305 -0.45847422 -0.21019176 0.83467 -0.3161435 -0.6846424 0.05053359 -0.21102509 0.019667428 0.9779228 -0.36250514 -0.08189422 -0.13649306 0.1696028 -0.7772892 0.63781434 -0.64915407 -0.19259629 -0.09577174 0.00041268114 -0.6068952 0.08818049 -0.07455689 0.30690923 -0.44458905 -0.2479663 -0.496338 0.08633748 0.026973683 -0.18027489 -0.38219404 0.41980362 -0.5576606 -0.34085932 1.0819916 -0.17310344 0.12434708 0.96899354 -1.0634795 0.28154632 -0.6946402 0.30195582 -0.2487851 0.5618727 -0.5223218 0.88620263 0.9772959 -1.0981876
12638 -0.15500261 0.13754459 2.0888486 0.12558149 -1.292892 -1.0156748 -0.20445013 -0.5956728 -0.36148173 -0.2852113 1.0164589 -0.4539997 0.4809629 -1.1893464 -0.09496304 0.26493213 0.3838246 -0.29642734 -0.16387507 -0.18220769 0.12504576 -0.10566587 0.9681872 0.49652013 0.56197226 0.9116748 0.32345572 -0.3332502 0.67906183 -0.9329823 -0.49753276 -0.051883865 -1.2709087 -0.3889943 -0.45495823 -0.74877185 -0.12911624 0.53133357 0.6022958 -0.3222394 0.61384547 0.66338015 -0.4699751 -1.1516773 0.78599715 -0.49497613 -0.24639526 -0.22790228 -0.06897558 -1.2686132 1.9081827 -1.733972 -0.13076569 1.1202306 0.3735784 0.44058165 -0.68689173 -0.33662555 -1.1348684 0.2114986 0.31645957 0.7006223 0.664721 0.3559983
210872 0.4191451 -0.422538 0.9486479 0.24223994 -0.47005376 -0.41722766 -1.2593154 0.21009095 -0.7063844 0.432495 -0.2796676 -1.0952394 -0.11615462 -0.68081343 -0.6465815 0.009860756 -0.55158526 -0.41485062 -0.07657481 0.8279886 -0.37909544 -1.0589089 -0.12819777 0.15319574 -0.63952273 1.4048277 -0.20587544 -0.024445355 -0.52861017 0.11689623 -0.2157064 0.5795716 -0.59994966 -0.20598178 0.069976516 -0.32461378 -0.8854893 0.08889209 0.10518469 0.22884262 -0.5580157 -0.59527034 -0.45396796 0.42133698 0.17221487 -0.2716613 -0.21995036 0.4937596 -0.9301416 -0.25976005 0.9717566 -0.10216167 0.23194808 1.0952567 -0.8215472 0.10805882 -0.18493216 0.56268364 -0.11293249 0.2970555 -0.54453987 0.50027025 0.4811767 -1.1606447
124224 -0.13821593 0.122594655 2.12189 -0.0053917514 -1.4180412 -1.0896161 -0.1420849 -0.4603694 -0.3288988 -0.42599642 1.0989444 -0.48237276 0.46933678 -1.1848793 -0.18641324 0.3420641 0.11527451 -0.34236342 -0.18089606 0.13252343 0.16666864 -0.060949367 0.949923 0.5570268 0.72930837 0.82696867 0.38738167 -0.42571753 0.7282401 -0.78293085 -0.8145328 0.09426652 -1.4137393 -0.5920147 -0.48873818 -0.75503355 -0.2401045 0.5402786 0.6347034 -0.5113143 0.65233177 0.8725599 -0.45514536 -1.2344109 0.80880195 -0.53245085 -0.22955513 -0.25243378 0.03466656 -1.4250319 1.9409705 -1.7548593 -0.13298455 0.9647911 0.20450099 0.45443162 -0.7096777 -0.36854836 -1.1081389 0.311852 0.25076246 0.7604501 0.7711929 0.15115596
82920 0.328787 -0.41993263 0.96264076 0.30159575 -0.44162682 -0.44909486 -1.3378326 0.40237588 -0.7970342 0.35571453 -0.23801544 -1.1010834 -0.2073791 -0.7235819 -0.5827158 -0.004527274 -0.6180756 -0.25510132 -0.17430517 0.87235 -0.54020584 -0.88838166 -0.1749928 0.18551308 -0.71092093 1.5051868 -0.22091217 -0.107511714 -0.4519565 -0.07272028 -0.1655462 0.5295811 -0.73291487 -0.13735972 0.14935806 -0.40830234 -0.915691 0.15519096 -0.045237552 0.25864807 -0.64795697 -0.596891 -0.570872 0.20738523 0.027119145 -0.36173424 -0.15573543 0.6942261 -0.92389274 -0.1285802 0.7782344 -0.015146837 0.28867638 1.2345599 -0.8413567 0.12232002 -0.18084034 0.6072449 -0.10044024 0.21789172 -0.5073378 0.44773084 0.28662917 -1.143862
11339 0.06175353 0.10214544 0.1945827 0.5215451 -0.939796 -0.6367637 0.7590416 -0.32107702 -0.81570816 0.8440541 -1.7730274 -0.95089495 -0.17952776 -1.2425214 -0.65307176 1.4615659 0.98476183 -0.7423431 0.4577332 1.0834041 -1.8256634 0.4576055 -0.44165444 -0.67456913 0.29329395 0.5018776 -1.7541971 -1.4983763 -0.48155698 -0.81837046 0.4456748 0.23401654 -1.6812891 0.050376743 1.1295058 -0.55188733 -0.102006294 -0.28321457 -0.4575836 -1.7636181 -0.81702226 0.0282565 1.128787 0.38845164 0.5933493 0.5350969 -0.2725828 -0.5554172 -1.0493017 0.30489507 3.2444904 -0.6307196 0.7649164 -0.7559013 -0.47422528 -0.06699191 -0.4560556 -0.30211797 -1.3711504 0.62576205 -0.83660465 -0.8730765 -0.45131427 -0.78891116
11326 0.03419557 0.04886198 0.14146538 0.5372829 -0.8759754 -0.6235485 0.7029583 -0.3509783 -0.81122124 0.80821925 -1.6993163 -0.9415373 -0.19110568 -1.2988012 -0.6105365 1.4817657 0.96140146 -0.68922937 0.60142875 1.1435937 -1.8294765 0.5563426 -0.5279292 -0.73476446 0.25929767 0.49755466 -1.8087661 -1.4482758 -0.47153795 -0.7800485 0.36653647 0.24304548 -1.6097313 0.0067854105 1.144202 -0.5937061 -0.09099747 -0.25401625 -0.50783885 -1.7514874 -0.80816925 0.03356079 1.1067084 0.46662715 0.65183675 0.56362647 -0.32083452 -0.56745076 -1.0146592 0.38521677 3.2561426 -0.6424661 0.7753975 -0.82386893 -0.46053475 -0.08835976 -0.4915574 -0.28727615 -1.3748131 0.56081074 -0.8592983 -0.793712 -0.43534505 -0.8498181
4584 1.0598583 -1.0544157 0.9802718 -0.193597 0.32473925 -0.38930485 0.0010737728 -0.004128852 -0.4286361 -0.34371755 -0.27059162 -0.96609515 0.4828103 -0.19371375 -0.24133503 0.61035645 0.5791591 -1.4610401 -0.47237712 0.29347658 0.25250754 0.31171152 -0.030431258 0.25961137 0.22464357 0.5263099 -0.17854892 -0.6251561 -0.19697255 0.40790817 -0.2656122 0.3563969 -0.16235495 -0.10938431 -0.6043603 0.4661261 0.03006198 0.21084599 0.13005732 0.49585807 0.66324365 -0.94119203 0.7973742 0.5700551 -0.17401002 -0.59173614 -0.15711048 -0.45194545 -0.73629946 -0.66428554 0.64211285 -0.3576329 0.16713703 0.7577071 0.22487755 -0.14723474 0.8191758 -0.2556434 -1.1557674 0.12890284 -0.31144738 0.40140384 0.90784764 -0.6621049
1272 0.24202335 -0.9552999 0.9496207 0.33823624 -0.9818588 -0.34737968 -0.32143658 -0.43055916 0.1647339 -0.05381667 -0.06228714 -1.3754222 0.10476543 -0.68327504 -0.55817014 0.622456 -0.17426856 -1.6321335 -0.8900156 -0.1704093 0.79261136 0.78776866 0.44173777 -0.3678632 -0.03551207 0.87805647 -0.24850392 -1.045013 0.83697426 -0.1940352 -0.37718654 -0.19874875 0.2856358 -0.07281218 -0.72553355 0.12129106 1.2369244 0.8808135 -0.5973016 -0.072122775 -0.34713486 -0.97079784 0.42468584 0.4890879 0.36466834 -0.35883054 -0.5046718 -0.32226515 0.6127648 -0.35920477 0.40270144 -0.36755615 0.08271197 0.37771034 -0.5962833 0.28829953 0.6073287 -0.075549275 -1.2308468 0.38924462 -0.032402925 -0.36956766 0.013187112 -0.07155549
643239 0.4399354 -0.36317477 1.0880077 -0.03541449 -0.10090577 -0.96292883 -0.38507074 -0.44616446 -1.5436043 -0.66319054 -0.43804565 -0.8435715 0.5335988 -0.0503986 -0.006907965 0.36720058 -0.32878658 -1.3636491 0.18379793 -0.023974828 0.741276 -0.76880586 0.92880434 -0.30754986 1.1400747 -0.050599333 -0.053220723 -0.20146197 -0.6999623 -0.83010936 0.5415529 0.39337486 -1.3765408 -0.36258757 -0.59193385 -1.0523845 0.015096473 1.5185318 -0.30240193 -0.13804151 -0.146219 0.08866711 -0.25879386 -1.5220861 0.47573844 0.94274217 0.6193249 -0.21170029 0.0738415 0.11674556 0.31700233 0.1420389 -1.1048918 1.1870029 0.18993756 0.6042368 -0.28707844 -0.021469716 -1.2888193 0.98848945 0.06269269 -0.19160041 0.7139338 0.40923452
887 0.80051756 -1.071726 -0.012696796 -0.13572374 0.37744418 0.024161989 -0.32283908 0.14015573 -0.1838291 0.66268355 -0.55912805 -0.8907692 -0.33129692 -0.33640087 -0.3688448 0.39807257 0.60401046 -0.9610331 0.19994985 0.49070618 0.06902713 0.021277776 0.6510384 0.04193995 0.18805401 0.124414995 -0.1547625 0.0051594935 -0.2943048 0.7015121 -0.3946761 0.55260855 -0.8160492 -0.18198831 -0.9220035 0.20221739 -0.33706236 -0.34636784 0.11637797 0.3191578 0.46056595 -0.73531735 0.53256935 0.6124942 -0.016465368 -0.13091643 -0.21026962 -0.6385745 -0.8717509 -0.27476406 1.7057062 -0.60125566 -0.07938025 0.8354176 -0.9650444 0.6492122 -0.52070576 -0.23516849 -0.77746636 0.70522046 -0.21557967 1.1110858 0.88660085 -1.6487584
85688 0.39578006 -0.5824398 0.7042968 0.37599778 -0.61098254 -0.098212406 -0.13891901 -0.2890276 0.13420498 -0.38792723 -0.050883453 -1.5414406 0.16494246 -0.38523564 -0.5351498 0.7246678 -0.3136158 -1.667075 -0.9638242 0.061846565 0.75564146 0.67762905 0.34035861 -0.12628761 0.029090054 0.8734788 -0.035133034 -0.99954647 0.86598 -0.4761158 -0.17123882 -0.27524754 0.12516318 -0.24627145 -0.81848574 0.08112292 1.0233741 0.3717749 -0.82476467 -0.028566381 -0.12941235 -0.8240783 0.1058354 0.33792275 0.7835864 -0.25162092 -0.48144367 -0.33288345 0.25482053 -0.50705725 0.64493275 -0.49680403 -0.1497582 0.77663404 -0.5569994 0.4292266 0.4764914 -0.18114136 -0.88935137 0.4741876 -0.29045534 -0.17177552 -0.27138123 0.38821885
22563 0.51591414 -0.31176198 0.88878113 0.48663095 -0.50594836 0.00226533 -0.30088902 -0.19205654 -0.22507685 -0.5530499 -0.07243516 -1.6076468 -0.25841966 -0.46522695 -0.5339824 0.3699678 0.15990578 -1.659851 -1.5826075 0.2709166 0.8216376 0.9560623 0.32318768 -0.1346063 -0.060774814 1.0754064 -0.10730443 -0.23459424 0.5374284 -0.6170838 -0.11821578 0.19350831 0.22765869 -0.25663412 -1.3492563 -0.54003316 0.6962344 0.91026145 -0.08531548 -0.4293654 0.16810007 -1.0213784 0.33239567 0.06413465 0.1321075 -0.37502816 -0.24571541 -0.22943676 0.0741498 -0.34803998 0.2595841 -0.26491898 -0.054091953 0.7770556 -0.4216486 -0.25600564 0.20194846 -0.338531 -1.273914 0.6978972 0.1810224 -0.5059717 -0.09780114 0.21242584
642894 0.3803382 -0.2501289 1.2538811 -0.033085126 -0.09356112 -0.9480915 -0.32006344 -0.5416224 -1.5177772 -0.6467072 -0.5009817 -0.7279148 0.60939485 -0.11381986 -0.0016885021 0.3031569 -0.14343098 -1.3229584 0.30842388 -0.09212979 0.6886439 -0.6588839 1.0109254 -0.15916157 1.1241109 0.21053821 -0.011419674 -0.24939457 -0.80172884 -0.7596128 0.44078743 0.34006166 -1.3985051 -0.4435007 -0.6113445 -1.0313256 -0.10325702 1.3913436 -0.31693226 -0.204019 0.13048063 -0.0057201856 -0.2264853 -1.524043 0.47243682 0.86724013 0.6945665 -0.022240091 0.17172395 0.0110776285 0.38132748 0.084327124 -1.0963826 1.1155707 0.34140888 0.6196882 -0.30469415 0.0003613456 -1.1827204 1.0283952 0.12523492 -0.24169435 0.57074773 0.31849155
48781 0.6928482 -0.06242358 1.4788331 1.9663566 -1.3896444 -1.1578268 0.78799385 0.43152177 0.29877132 -0.49490306 0.18820912 -0.5945464 0.21679837 -0.81977755 0.840566 1.6188374 0.37898964 -0.79794157 -1.676229 1.2584236 0.8956152 0.78832227 1.1995047 -0.32254693 1.5166698 0.6878144 1.1019367 0.5687296 -0.63932514 -0.31926778 0.56854194 -0.97153425 -1.3717285 -0.51152813 -0.8898167 0.05943605 0.39762262 0.6587492 1.2037966 0.061751876 -0.78860945 0.3575996 1.2587389 -0.39428428 -0.4284083 0.04210048 0.7074565 0.1758551 -0.08416504 -1.7671899 1.1316805 -0.13740006 -0.6786674 2.2283654 -0.33537436 -0.58790064 -0.94216067 1.1900376 -2.2905967 0.18835568 -0.47123432 0.03887042 0.59238833 0.17513998
1365 -0.30831617 -0.5728198 1.1629572 0.116991974 -0.6339642 0.24695872 1.3500687 -1.0136925 -0.5967965 1.3280449 0.7553051 0.5176209 0.11105956 -1.2573589 1.1586328 0.7979342 1.4556633 -0.20710649 0.5815356 0.032718234 1.0540093 0.344056 -0.08678905 -1.3352153 0.7425647 0.4040767 0.8642748 -0.49425706 0.63447607 0.35772172 1.0365152 -0.09972959 0.33260554 -0.9052754 0.50414664 -0.55644435 0.48316416 0.18128186 -0.3284649 1.3505237 -0.20025103 0.63078797 0.87209505 -0.84988874 0.3380504 1.5253433 -0.76327515 0.7712268 -0.6633122 0.351289 1.4365438 -1.2749143 -0.21958461 -0.012585364 -0.48087543 -0.22950421 1.531909 -0.57299596 -0.9460891 -0.36433867 0.21356817 -0.69064 -0.3169722 -0.5818147
8224 0.70440674 -0.65778536 0.81588244 0.2347546 -0.92917264 -0.02319406 0.024483198 -0.204347 0.06351135 -0.31591833 0.36143458 -1.0982609 0.36280236 -0.5013467 -0.55490303 0.6704828 -0.13295382 -1.5069803 -0.9824733 0.26433986 1.158753 0.54068965 0.32788345 -0.05503045 -0.1138068 0.8745141 -0.32667276 -0.89543325 0.95791596 -0.5200523 -0.3179949 0.049414814 -0.076522335 -0.25826094 -0.6656222 -0.0048580593 1.3751594 0.50392413 -0.397963 -0.5692106 -0.0300525 -1.0973026 0.16313115 0.021766411 0.558908 -0.41859046 -0.43229246 -0.22366235 -0.045958232 -0.07190014 0.38312575 -0.517732 -0.18331212 0.5974455 -0.59041977 0.0622732 0.47434437 -0.24658284 -0.79409784 0.5230576 -0.17444094 -0.42902598 -0.1982955 0.24776424
423816 0.70121634 -0.066418044 1.4542743 1.9165674 -1.3857514 -1.1297015 0.7445522 0.36906463 0.36786774 -0.40214944 0.19727261 -0.63082534 0.13115722 -0.77963835 0.810052 1.6718451 0.36055183 -0.7880739 -1.704083 1.3120928 0.8863513 0.8196541 1.1740012 -0.2215425 1.4667138 0.6463358 1.1374255 0.5602898 -0.5269153 -0.24040635 0.5203626 -0.98809075 -1.3336776 -0.49507037 -0.9330081 0.1139238 0.34403038 0.69282377 1.1964623 0.096995056 -0.774195 0.35530502 1.2771753 -0.43901226 -0.40508062 -0.055561718 0.6502246 0.16079232 -0.12821445 -1.8025693 1.0884087 -0.20890869 -0.5020864 2.2523458 -0.3854421 -0.5292991 -0.87662774 1.1657904 -2.26606 0.219561 -0.46411756 0.034563217 0.5911205 0.1131879
16819 0.37374026 -0.12559302 1.2830106 -0.17707434 -0.053050783 -0.78195906 -0.27797762 -0.5089677 -1.4280933 -0.6842345 -0.46421328 -0.87988704 0.65666884 0.00021510314 -0.044809595 0.5018152 -0.3914001 -1.3778361 0.40055797 -0.01701965 0.6196585 -0.8865691 1.1117185 -0.37398708 1.0227177 -0.041534055 -0.057684187 -0.30242136 -0.49393123 -0.9087544 0.28780445 0.43772432 -1.4833851 -0.44300354 -0.51897275 -1.2735988 -0.14295098 1.444982 -0.35976982 -0.21547252 -0.028015163 -0.050006747 -0.2084693 -1.574263 0.50601333 1.1182781 0.3440702 -0.31434333 0.13663119 0.13441952 0.31492183 0.19450939 -1.1120955 1.0036758 0.10501708 0.6323975 -0.3029894 -0.084802486 -1.5030475 1.0425926 0.06900357 -0.09902827 0.44808602 0.36412263
643485 0.4890247 -0.29550382 1.3500676 0.07251553 -0.088831685 -1.0578092 -0.5624612 -0.6548684 -1.7611839 -0.8217663 -0.53729695 -0.671425 0.499438 -0.149509 0.018108483 0.30386907 -0.22658926 -1.4327879 0.36742377 -0.15592103 0.7115241 -0.90445495 0.8191642 -0.36824062 1.1700891 0.1641392 0.107073456 -0.23534 -0.76301974 -0.75903904 0.3961464 0.3320892 -1.3592403 -0.5035726 -0.6688162 -0.9444176 -0.19869466 1.3652295 -0.4718137 0.010960651 -0.0030900694 0.029575251 -0.3454685 -1.5520377 0.52578497 0.8702885 0.48263228 -0.28782952 0.11234643 -0.038903076 0.45221943 0.2381028 -1.1246265 1.227411 0.3248823 0.68322855 -0.34562203 -0.053942546 -1.0849065 1.0612563 -0.10322599 -0.14692903 0.53151244 0.1342558
154023 -0.39263836 0.47715694 0.075157456 1.0659337 -0.55769026 -2.0299911 1.1824882 0.08462015 -0.99847186 0.5283704 0.71943337 -0.38453865 -0.31578737 -1.4447842 1.6297878 1.7779121 0.14471999 -1.1760801 0.5401509 2.1731923 -0.086799294 1.1993443 0.43203828 -0.11734641 1.9784527 0.39173973 0.4002073 0.7200281 0.25897545 -0.0031741569 -0.2299359 -0.23795831 -0.48088974 -0.5067037 -1.0957685 -0.78560144 -0.8572083 0.9080233 0.67815083 -1.1075553 -1.1734641 1.0071818 0.9010084 0.075343765 0.4631736 0.44181293 0.15074492 1.7308266 0.17536679 0.2642101 1.208167 -1.3079956 0.8293029 0.8943997 -0.37411773 0.9497369 -1.5103465 0.36020157 -0.35936588 -0.12268309 -0.65915924 -0.20613088 1.3177159 -1.5467885
6213 0.7417697 -1.0036012 0.7562098 -0.89476234 0.34453058 -0.27748695 -0.6968652 -0.13307942 -0.08692211 -0.10627749 -0.0330196 -0.37869626 -0.71684974 0.28796336 -0.36337593 0.8175358 0.36812067 -1.6557374 0.02986203 -0.21825509 -0.41658366 0.1816214 0.10386799 -0.34809572 0.6319378 0.6123489 -0.043759245 -0.7492703 -0.33944005 1.1627387 -0.6072871 0.39553565 -0.4078025 -0.15457985 -1.0252938 0.61644685 0.25897714 0.28203312 -0.07805831 0.3077019 0.14157857 -0.53516066 0.5037377 0.6344109 -0.37757385 -0.26664916 0.32870084 -0.57453305 -0.59567016 -0.7125378 1.3436326 -0.5775538 -0.114328586 0.5957207 -0.077480495 -0.37482733 -0.2853562 0.30086735 -0.9262 0.5849304 -0.7614067 0.8765007 1.1480281 -1.3928136
648112 -0.5670188 -0.31897897 0.7445972 -0.19774587 0.19650523 -1.3408601 -0.008141444 0.21959263 -0.49235994 0.5016839 0.55991644 -0.2806999 1.0936886 -1.0218656 1.3184559 1.278823 0.6960244 -0.86746293 0.6135239 1.4312421 0.30191353 0.5286702 0.29094777 0.40270174 1.7315294 0.96723026 1.1637961 -0.22199324 0.046667032 -0.5768217 -0.4358555 -0.6666886 -0.18522026 -0.124393724 -1.1791143 -0.1262463 0.025686346 1.2720551 0.48091647 -1.7359092 -0.29081136 0.38060385 0.28163144 0.13833578 -0.069256745 -0.001817244 0.92658854 0.79490566 -0.023993842 -0.8224238 1.9212872 -0.8232728 0.4331905 1.0434104 0.31654784 0.13274202 -0.8530161 1.0523871 -1.1995597 -0.030087898 -1.0896913 1.0660349 1.0029596 -2.3111727
154047 -0.37001622 0.57897055 0.014410239 1.0284426 -0.5447983 -1.9701382 1.3547097 0.04946534 -0.90520436 0.5176681 0.7108055 -0.3839852 -0.15220247 -1.5133284 1.6113459 1.8480797 0.18254367 -1.2754058 0.4302402 2.2175813 -0.014953554 1.2851772 0.5205783 -0.09877292 2.0116122 0.40553293 0.45443332 0.61028755 0.3081116 0.005703895 -0.17729716 -0.19960709 -0.51140386 -0.5127939 -1.0723814 -0.76830024 -0.77898276 0.9439585 0.65628666 -1.1712987 -1.1056439 0.92421806 0.9114076 0.11808993 0.39832714 0.46341315 0.18536904 1.6787084 0.1577409 0.13222054 1.1567297 -1.2630897 0.7419242 0.9879101 -0.30095613 0.88678485 -1.4159956 0.38116238 -0.49537185 -0.26001385 -0.68222654 -0.31533 1.3998884 -1.506862
648106 -0.51094484 -0.24878033 0.7603576 -0.2567763 0.2942132 -1.2435801 0.059328612 0.16470699 -0.41490325 0.43217418 0.49742034 -0.37318045 1.0965112 -0.9994712 1.3314487 1.196805 0.6115767 -0.9719484 0.51331615 1.399318 0.39770758 0.433069 0.31526235 0.4210786 1.6323807 1.0272696 1.1467974 -0.20900922 0.13810705 -0.5053516 -0.43817657 -0.60854596 -0.24493141 -0.077020146 -1.1271893 -0.21614061 0.004361345 1.342696 0.44192794 -1.6504148 -0.19284114 0.33242473 0.2802035 0.18713225 -0.10584734 -0.008026038 0.9156101 0.77754724 0.009562596 -0.8650419 1.6533134 -0.8795768 0.41208258 1.0760493 0.33108538 0.16589932 -0.8531533 1.0621074 -1.1837463 -0.089209676 -1.0461193 1.024562 1.0808735 -2.0898423
35335 -0.88225716 -0.7297573 -0.33337975 -0.33577603 0.8655388 -0.16298334 -0.48481908 -0.98602724 -1.3960946 1.49703 -0.91716456 -0.7025543 -0.5893531 -1.7772069 -0.19876489 1.5029602 0.6834456 -0.8228175 1.7202735 1.8460288 0.13404883 0.030643782 -0.8987317 -0.91339505 0.7804387 0.42137292 -1.6888512 -1.225139 -0.9504696 -0.75418854 0.26852027 -0.087820426 -0.3743884 0.8428593 0.33319703 -1.3075026 -0.8856461 0.25036037 -1.4637133 -1.0033052 -0.8020708 0.053626336 1.3625073 -0.037978467 0.34776115 1.3041135 0.23423162 -0.06910039 -0.26657242 -0.68609345 1.6892145 -1.1197829 0.94527614 -0.21400115 -0.8572257 -0.44277677 -2.1650548 0.80021423 -1.0576621 0.22346073 -0.21011187 -0.2584403 -0.11398435 -0.6673865
10798 -0.2824432 -0.032253906 0.4344682 0.9320513 0.34014067 0.68476725 0.716438 0.05993316 -1.7821538 -1.1519245 -0.8051166 -0.7513147 0.0962072 -0.39637867 -0.91628593 0.65760475 -0.79225403 -1.2376229 0.5423577 -0.18403536 1.1584868 0.55255514 0.5129269 -0.73007554 -0.40782157 0.3495161 0.25795928 -0.75341696 -0.8036512 0.34121263 -0.43057632 0.1911415 0.6006541 -0.6498796 -1.1359985 -0.53732985 -1.4081768 0.6139612 -1.2168621 -0.28070122 -0.54737973 -0.98483425 0.63263273 1.2722026 -0.20674348 0.35773864 0.49148497 -0.721274 -0.8786691 -0.5063754 0.5394432 0.05170468 1.2516463 1.1050168 -0.9998895 -1.5079229 -1.2702162 -0.6193978 -1.7481152 -0.6244097 0.5345586 -0.06812105 0.15323375 -0.92442846
59772 -0.94925696 -0.79387474 -0.3170407 -0.30985183 0.8318975 -0.17034362 -0.49894685 -0.99123454 -1.3404791 1.4875336 -0.892345 -0.71361035 -0.6149059 -1.789592 -0.16862315 1.5184923 0.67789346 -0.86921024 1.7054895 1.8389635 0.106384106 -0.07596889 -0.85178584 -0.9750592 0.708041 0.4930775 -1.6451793 -1.2062178 -0.97983813 -0.7240675 0.30840817 -0.07733358 -0.46046114 0.76038545 0.29915574 -1.3564864 -0.89559346 0.3079724 -1.446928 -1.0199156 -0.8875946 0.12223726 1.415235 -0.045236383 0.36346093 1.3641834 0.16707599 -0.09648323 -0.27558637 -0.61970925 1.6469539 -1.1749331 0.92099375 -0.14416537 -0.8724863 -0.41193816 -2.0553393 0.84964955 -1.1343526 0.3007155 -0.22993408 -0.27370095 -0.14038427 -0.55918175
103430 -0.14969262 0.005097536 -0.35971528 0.3415721 -0.09665593 -1.8351973 0.56246936 0.30848435 -0.9510035 0.35708326 0.2641292 -0.53283995 -0.19946083 -2.0190206 0.5801215 2.0466416 0.6453346 -0.26159364 1.4944268 2.1806023 0.1443776 1.0018595 -0.7041637 -1.4263215 1.1446509 0.1827378 -0.72575545 -0.840098 0.32813558 -0.3459913 0.19425002 -0.11764746 -0.1574816 -0.3456088 -0.0898679 -0.08854326 -0.4772207 -0.14261469 -0.3533419 -1.9159805 -1.3245856 0.29017177 1.3082188 0.5303779 0.17230451 0.8832113 -0.78742576 -0.2990951 0.108567335 0.37763748 2.2550673 -0.8167158 0.8193755 -0.0017814968 -0.62417704 -0.6433041 -1.398751 0.48558238 -1.4116563 -0.4681655 -0.81597066 0.50446725 -0.6634709 -1.923989
75318 -0.06972282 0.007194509 -0.38395554 0.31432176 0.030128513 -1.7928281 0.6078237 0.36889806 -1.0250705 0.34182987 0.09851694 -0.60400814 -0.24480774 -1.9586009 0.5276678 2.108429 0.6746318 -0.31135306 1.4119371 2.181476 0.11084541 0.9591441 -0.69994926 -1.4602193 1.1359688 0.10007319 -0.77160496 -0.80791473 0.3192143 -0.30132735 0.25955176 -0.18950628 -0.0069254413 -0.457413 -0.1406319 -0.18622252 -0.38374174 0.00028960142 -0.28717956 -2.0191882 -1.3268172 0.11156697 1.2885816 0.4881768 0.2936986 0.97196674 -0.6934768 -0.2669181 0.06106765 0.44524348 2.0750687 -0.7716452 0.90596527 0.06103717 -0.51173055 -0.44752413 -1.3629564 0.48550135 -1.3337305 -0.4696924 -0.7464294 0.43577698 -0.85754013 -1.8725634
13686 0.46570912 -1.0703026 0.69798636 0.3863128 -0.84170187 -0.3682227 -0.52677315 -0.28887016 0.2589598 -0.7255423 -0.5293383 -1.0832143 0.40001863 -0.58497137 -0.19001465 0.68582505 0.08378002 -2.063991 -0.69703037 -0.07409176 0.8681373 0.77506924 0.11247671 -0.3449227 -0.20867653 1.1846299 0.021872701 -1.0414547 0.7544407 -0.4617849 -0.38796797 0.040058658 0.028923267 0.12165848 -0.8670018 -0.08060879 0.83809966 0.5918317 -0.6808946 -0.01998874 -0.42659068 -0.8108189 0.3520937 0.39008915 0.3428305 -0.3353086 -0.42192426 -0.24499922 0.266326 -0.48595405 0.50579625 -0.5548285 -0.05108555 0.3464083 -0.58758664 0.37900713 0.82001185 0.0045988923 -0.97043854 0.045840055 -0.2703122 -0.32195157 -0.19525307 -0.06548117
3229 0.17748722 -0.9025794 -0.038580377 -0.6565729 -0.6763983 -0.989453 -0.09215465 -0.24834093 -0.54603547 0.14265294 0.36078763 -0.17656967 -0.5988783 -0.58469284 0.4696093 1.3815767 0.3213827 -0.40305525 0.69486797 0.66730994 0.21472225 -0.39081934 0.04287343 -0.47880867 1.2058634 0.96324843 -0.7030479 -0.6896789 -0.32194915 0.13525477 -0.30815867 -0.4234041 0.49814326 1.1028565 -0.55462843 0.11876501 1.3278056 -0.5022566 -0.005707118 -1.0714633 0.7641492 -0.5060759 0.32519487 0.21948494 1.5844733 0.07984794 -0.84693295 -0.46399608 -0.022532761 -1.3302225 0.27569154 -0.13264425 -0.406433 0.8430847 -0.37774894 0.12056229 0.28469533 -0.22547723 -0.31150246 -0.35406905 0.24724999 0.08788891 1.0768921 0.3249829
35061 0.6485585 -0.98275787 1.1150172 0.3567599 -0.010701261 -0.5620912 -1.2401527 0.41107696 -0.5564874 0.31086284 -0.43746307 -1.1974002 0.022909423 -0.3627491 -0.7158008 -0.032731377 -0.09686174 -0.56895155 -0.16054553 1.1192716 0.0900802 -1.1696237 0.47831997 -0.17940088 -0.32049945 0.9913783 -0.32360753 0.28318626 -0.13736968 0.15111719 -0.7040178 0.32133946 -0.84709835 0.21636604 -0.09943625 -0.23828791 -1.1906354 0.092628956 -0.08148399 0.3660125 -0.6230533 -0.33455575 -0.09246105 0.2866885 0.31559417 -0.91308075 -0.37056682 0.011361554 -0.115398765 0.19694573 1.3696046 -0.5112261 -0.048230525 0.28401622 -0.69739664 -0.22659747 -0.52907735 0.3856702 -0.4025109 1.1326654 -0.294739 0.70750374 1.093634 -0.64376366
12350 -0.1947998 -0.3861213 0.22944824 -0.2879373 -0.45759112 -0.84050536 0.4173876 -0.38992056 -0.94551283 -0.57141775 0.04010493 -0.8474817 0.038213734 -0.93640935 -0.5173306 0.23651631 -0.048481587 -0.9631325 0.09812933 0.70085156 -0.19474694 0.52170384 0.3921188 0.13699521 1.4588605 0.39455235 -0.55229133 -0.09450819 0.78582066 -0.8871291 -0.17592631 -0.0019851131 0.7909727 -0.41502824 -0.20193338 -0.08346822 -0.5664293 -0.14658625 -0.38080263 -0.9047283 -0.09046077 -0.43152598 -1.0653002 -0.23137149 0.7911909 0.7503474 -0.23887198 -0.09464361 -0.37979147 0.30769506 0.62765235 0.53382516 0.58009666 0.26876998 0.07543359 -0.0011071516 0.21727845 -0.97496545 -1.2601482 0.5892128 -0.8707803 -0.8285849 -0.44254777 -1.0740924
23738 0.28290328 -0.3310408 0.86815214 0.12961775 -0.7123494 0.051250387 -0.24604784 -0.21799289 -0.20677376 -0.40833935 -0.29625967 -1.0469757 -0.24511316 -0.62613016 -0.3264599 0.19640554 0.027222201 -1.5732374 -1.0230008 -0.1934173 0.58348453 0.56504583 1.2039075 0.29087532 -0.065499105 0.9757924 -0.17528182 -0.5085006 0.77613527 -1.0166781 0.11679921 0.07128223 0.4225333 -0.4489645 -1.0857649 -0.72139585 1.2629982 0.75117415 -0.35719788 -0.7997193 0.45137498 -0.64585 0.38271955 0.27982265 -0.039139435 -0.5870836 -0.1366134 -0.8836551 0.07869587 -0.064761125 0.3398637 -0.14546531 -0.50894046 0.97725993 -0.5933359 0.086810015 -0.0012960852 -0.30043384 -0.88475925 0.9956755 0.1633041 -0.37092528 -0.2106756 0.1588586
34979 0.15854232 -1.421101 1.3518752 1.1330987 -0.87246704 0.10391858 -1.3300346 0.20746066 -0.41832262 -0.3863199 0.12827453 -0.5485 0.41791588 0.66389185 -0.6385453 0.8371235 -0.33592132 -2.06152 -1.7676867 0.45821223 2.323222 -0.6325171 1.9110304 -0.1358197 0.93591696 0.2705657 -0.7730763 -0.25502142 -0.38065517 -0.9209721 -0.11994941 -0.86110115 0.11125342 -0.47116262 -0.13534854 -0.26569813 -0.38372084 1.0783136 0.53643435 1.7242284 -0.7224727 -0.02478719 1.6085455 -0.51579076 -0.42183015 0.6683069 0.53585464 0.3952008 -1.0484025 -1.0295671 0.80165386 0.022458144 -0.54941356 2.4833972 0.18307933 -0.009706651 -1.4274282 0.38653508 -1.1373695 0.31780437 -0.5575441 -0.3676395 -0.21641594 0.077547975
13982 0.1960438 -1.4357686 1.3115547 1.1545478 -0.9429136 0.0049699144 -1.3418988 0.22081816 -0.44909576 -0.3629651 0.2672297 -0.45997065 0.36205682 0.64773124 -0.63805896 0.84999704 -0.35843325 -2.0055676 -1.7049187 0.4430675 2.2437751 -0.6113769 1.8961055 -0.19397844 1.0033503 0.22851704 -0.8475074 -0.24928276 -0.43138608 -0.87063056 -0.100303255 -0.90719813 0.1277374 -0.5316803 -0.088424705 -0.28242144 -0.48736292 1.0023053 0.5900742 1.6982356 -0.69189703 -0.027081998 1.5357276 -0.6294652 -0.3761163 0.65304416 0.52942157 0.41015208 -1.0876096 -1.0550772 0.96281004 0.049357217 -0.51647204 2.4681535 0.17535348 -0.112658456 -1.3995374 0.43158254 -1.2600286 0.4188144 -0.62319916 -0.33276522 -0.28830278 0.09091027
36140 0.48249605 -0.38090083 0.80639774 0.46949127 -0.7428681 -0.12844299 -0.117408805 -0.4651467 -0.08715943 -0.74562466 -0.15944462 -1.5097287 -0.101556815 -0.69513875 -0.49067992 -0.09787592 0.15151346 -1.4765106 -1.5748444 0.52073866 0.9230382 0.8831889 0.38145995 -0.07577916 0.022235395 1.138663 -0.13267311 -0.3250628 0.5890337 -0.56965023 -0.06339866 -0.13436215 0.16520163 -0.4848503 -0.9363037 -0.3793455 0.9219228 0.9941161 0.22804219 -0.31720108 0.065293215 -1.019005 0.29783085 -0.09856163 0.35015965 -0.24850611 -0.3420467 -0.590726 -0.1488448 0.013733401 0.22851811 -0.21438274 0.061973356 0.9363871 -0.3728887 0.13247554 -0.0852584 -0.202838 -1.3858403 0.8173508 0.19371401 -0.32366666 -0.14721166 0.33047
44514 0.658319 -0.5896108 1.1844758 0.19750695 -0.49811426 -0.26628834 -1.0710609 0.038474817 -0.63454616 0.6082796 -0.51586074 -1.0630951 -0.28155896 -0.6822639 -0.47552922 0.10656174 -0.5254055 -0.734145 -0.18450718 0.8184512 -0.3491396 -0.8830292 -0.20409878 0.2687868 -0.550434 1.0452806 -0.101240784 0.013555879 -0.72608584 0.24362399 -0.5157767 0.44044393 -0.62302923 -0.17918627 -0.06648751 -0.27509153 -1.1074084 -0.023653207 0.14248025 0.22118795 -0.5324699 -0.87566423 -0.17654534 0.36475196 0.3260902 -0.17458789 -0.30074278 0.25851429 -1.0016196 -0.40471774 1.0393845 -0.12987019 0.644658 0.883615 -0.85381573 0.23698448 -0.33103132 0.4906395 -0.25641507 0.43629292 -0.576862 0.5908519 0.5615381 -1.542352
24966 -0.1644986 -1.6330974 -1.0446745 0.19536741 -0.34414548 -1.4822813 0.7116097 0.56656855 -0.73580027 -1.2103013 0.7178771 -0.05216865 -0.81291527 -1.6534052 -0.40590733 1.2200825 0.76666635 0.77656037 -0.4887376 0.07997519 1.6207035 -0.7325596 0.8032682 -1.5374651 0.32264858 0.13031404 -0.7970573 -0.90210253 -0.26218328 -0.1927406 0.03486584 -0.40307844 0.006111775 0.18558322 0.027800629 0.033854682 0.46652642 1.2167678 -0.24982655 -1.0782784 -0.5062961 0.55822825 -1.2916238 -0.54546154 0.20141022 -0.9608044 0.9336093 -0.70075953 0.6216256 -0.10612776 1.2701174 0.21188162 0.4071968 0.8692856 0.26760942 -0.31467548 0.313607 0.59105945 -0.53553736 0.43867463 0.083320655 -0.98175126 0.5113048 0.051560476
648121 -0.47983372 -0.26572284 0.76287645 -0.18210429 0.21891691 -1.2817061 0.06185974 0.20536637 -0.39566848 0.46974516 0.49570397 -0.29130495 1.0254009 -1.0322555 1.3553613 1.3530263 0.6829225 -0.94589496 0.56012523 1.4864368 0.3521639 0.48181123 0.3155543 0.40094286 1.6245173 0.99826235 1.1837324 -0.23368236 0.14889173 -0.48853967 -0.3970697 -0.60833675 -0.24994029 -0.050961692 -1.1864116 -0.1653101 0.044044133 1.2683918 0.4706314 -1.6332154 -0.2648437 0.42016527 0.32794017 0.21873437 -0.060407296 -0.09311655 0.8930171 0.76498103 -0.037951022 -0.9008805 1.8436307 -0.95247954 0.4284068 1.066057 0.29573008 0.14153224 -0.9007911 1.1068665 -1.178639 -0.17140046 -1.0780799 1.0274904 1.1822121 -2.1472807
51180 0.092715874 -0.5180405 0.22176135 -0.6105137 -0.3198981 -0.66086096 0.31334993 -0.4504459 -0.8960883 -0.64481455 -0.14936699 -0.7974359 -0.047375362 -1.0298184 -0.2687274 0.117969 -0.24417089 -0.74403924 0.15917133 0.7791464 -0.23182407 0.48883042 0.46842375 0.06833422 1.5091621 0.57025146 -0.59592307 -0.19282521 0.86173296 -0.9676292 0.2792884 0.24035971 0.5405659 -0.35468388 -0.02650834 -0.13222183 -0.6558248 0.24826328 -0.6516937 -0.9546999 -0.05250187 -0.61368895 -0.70839965 -0.43293452 0.35769042 0.76650035 -0.058131322 -0.22034417 -0.46151757 0.31916797 0.79788524 0.5276195 0.71447736 0.25648066 -0.28661728 -0.2927043 0.3796482 -1.0411923 -1.2828285 0.8686817 -0.9551356 -0.77678466 -0.42187712 -0.9908387
400455 -1.4658672 -0.19139758 -0.29892308 -0.6701367 0.95440114 -0.58470464 -0.25362003 -0.5748593 -1.6481837 0.9383516 -0.29756445 -1.0747864 -0.19585276 -1.1398348 0.5146126 0.41921622 0.2960467 -1.1377932 0.90517396 1.6759009 0.31308573 0.43989474 0.94135517 0.007742036 2.4182062 0.90858155 -0.63825333 -0.069219835 -0.5914043 -0.5868028 -0.05745953 -0.5071237 0.017693974 0.906707 -1.2677022 -0.9941407 -1.0333046 1.281475 -1.2727362 -0.7806599 -0.9261962 0.48721942 0.49801993 -0.5851664 0.077636056 0.6580118 0.554789 1.1329557 -0.32007134 -0.46405157 1.0169063 0.0123428125 0.86227185 1.2039058 -0.6793826 0.78162235 -1.3994608 0.49851632 0.17717408 0.20751801 -0.52270144 -0.6835057 1.2913159 -1.5541615
633030 -1.0954018 0.009941972 -0.4336024 0.033191323 -0.23109479 -0.7310154 -0.072027184 -1.4953957 -1.3156372 0.86011827 0.92843324 -1.3550862 0.040929683 -1.8701907 0.16150902 0.97590774 -0.22858535 -1.7442148 0.9514125 1.5107427 0.56693447 -0.3243525 0.5251013 1.1811078 1.5904709 0.7793785 -0.4235649 0.5283762 0.16113266 -0.3733143 0.17542873 -0.40478525 0.5941097 0.21263282 -0.90653074 -1.3871105 -0.327477 1.7164867 -0.3484329 -0.7785154 -0.19627641 0.6613601 -0.3705337 -0.48680326 0.9418872 0.56486076 1.5504345 0.8677238 0.15850997 0.2517128 1.2184557 -1.0358595 0.5214331 0.5472499 -0.102998614 0.89080334 -1.17332 -0.41300908 0.077891044 0.53013694 -0.33881095 -0.46889043 0.9706792 -1.4515022
633031 -1.2603506 -0.2071065 -0.48262486 0.13483034 -0.07460098 -0.63584477 -0.04686342 -1.3288536 -1.5861889 0.995341 0.8602099 -1.2489665 0.25567687 -1.5937995 0.21598366 1.0859517 -0.45174628 -1.6150357 1.0984647 1.4795779 0.8295066 -0.5182373 0.23086743 1.057174 1.5696281 0.38497293 -0.71395195 0.4899757 0.13162354 -0.3222576 0.058085464 -0.34829605 0.85999924 0.107045785 -0.6797071 -1.3645306 -0.48068362 1.874152 -0.27967316 -0.9368393 -0.3803937 0.6470848 -0.320486 -0.6685933 0.70636374 0.8083443 1.4189662 0.71007514 0.20997219 0.30096763 1.3313122 -0.9344624 0.40199974 0.7436306 -0.33003923 0.961842 -1.39097 -0.30202088 -0.16293828 0.5452265 -0.2645886 -0.59648144 0.97006583 -1.428655
49753 -0.49639133 0.2175051 -0.1760249 0.64105517 0.76232857 -1.7361816 -0.52516156 0.06552571 -1.7771465 0.17908077 -0.3680163 -0.9123557 -0.66043174 -1.8317589 0.8854874 1.1573194 0.26854017 -1.6559777 1.865865 0.8880255 0.75025016 0.32897022 0.40252405 -0.06512179 1.4105952 0.77501005 -0.418919 0.43094766 -0.31950074 -0.19750108 -0.31203184 -0.575231 -0.20568398 -0.124023266 -0.8931362 -0.88153917 -0.40854973 1.470249 -1.2006559 -1.5890446 -0.89258444 0.97212857 0.07858761 -0.14708136 1.4539714 0.4821994 0.85633796 0.38420758 -0.32836056 0.34627092 1.1207087 -0.20757471 0.77007216 0.8785165 0.3688018 1.4614989 -0.44925866 0.3040718 -0.019265918 0.10055429 -0.54085165 -0.015584023 1.0853032 -0.9545495
73972 -0.62970024 -0.2774503 -0.37486652 -0.70943546 0.19381048 -1.3144258 0.25783157 -1.184261 -1.8505516 0.1722228 -0.36982727 -1.1802783 0.23033695 -1.5036006 0.47695023 1.2814142 -0.09498591 -1.4695514 1.3434479 1.0897304 0.34527808 0.4516237 0.4409619 -0.55422366 1.5758404 0.26955646 -1.0629985 0.32235914 -0.41974682 0.11297374 0.08123858 -0.57029873 0.15130396 0.5662644 -1.7369232 -0.6983897 -0.46780485 1.808142 -0.92090464 -0.50264734 -1.215363 -0.15050843 0.76702744 -0.8776754 0.7760791 0.73254365 0.89866334 0.36182043 -0.22226845 1.2986331 0.72675973 -0.6281773 -0.06771424 0.5384122 -0.96281224 1.3875328 -0.3555285 -0.82327646 -0.21895 0.8521762 -0.5490881 -0.32261497 0.017304623 -1.6499466
50980 -0.7061828 -0.18106206 -0.55268764 -0.830795 0.008855397 -1.3327914 0.27513802 -1.2600361 -2.071935 0.16137025 -0.32163158 -1.3950733 0.30702546 -1.5042377 0.6776241 1.269193 0.07499955 -1.4470847 1.479236 0.95945346 0.18469147 0.48263538 0.25218874 -0.53389144 1.7651768 0.25583264 -1.201815 0.22865827 -0.27769178 0.084795356 0.11893434 -0.25950772 0.03326151 0.52237165 -1.7531517 -0.87874925 -0.7021307 1.7414441 -0.8207894 -0.32856718 -1.1551504 0.101542376 0.6475042 -0.9400503 0.7576902 0.6881789 0.69454914 0.72752076 -0.11319931 1.3420118 0.8621276 -0.5629622 -0.095978335 0.3928791 -0.80544674 1.0036415 -0.151683 -0.56343985 -0.38107273 0.9759697 -0.4762225 -0.39023998 0.23091306 -1.3584249
368657 -1.530106 -0.050973725 -0.19202982 -0.8199381 0.9168278 -0.59488875 -0.4456795 -0.46935853 -1.663969 1.0394832 -0.1981146 -1.1462603 -0.39232305 -1.2014768 0.4844607 0.5452173 0.25923258 -1.1990407 0.99272025 1.6621644 0.6322152 0.3389243 0.8174258 -0.012168586 2.161913 0.6618802 -0.6317164 0.015746677 -0.6109489 -0.49817032 -0.26617673 -0.80754936 0.15155855 0.80418485 -1.535145 -0.9115762 -1.027618 1.307211 -1.1839156 -0.8565411 -0.5780165 0.35953888 0.44515315 -0.34699056 -0.083803214 0.64533156 0.5846646 0.9745569 -0.6562211 -0.7214776 1.1101346 -0.05345013 0.8352657 1.100273 -0.6109623 0.62220407 -1.0171086 0.4299736 0.3424549 0.18140042 -0.6189388 -0.47413945 1.3943567 -1.5670016
49720 -0.459399 0.048290994 -0.09823625 0.43898717 0.7227317 -1.8166324 -0.4061296 0.23611142 -1.7900006 0.4754807 -0.6759085 -0.97626853 -0.6723387 -1.8798621 0.92360175 1.2617596 0.40255746 -1.6347694 1.8801808 1.0234416 0.5928196 0.4612376 0.5399374 0.16162406 1.4962896 1.0677071 -0.4946347 0.22776206 -0.36764854 -0.44059047 -0.4740929 -0.54667103 -0.17777026 -0.14709538 -1.049559 -0.85560673 -0.14186662 1.4296197 -1.1147333 -1.3989336 -0.5984708 0.87758684 0.070961356 -0.2465604 1.2512399 0.60503626 0.8798544 0.3490481 -0.71655464 0.45542416 0.9374927 0.003129693 0.87651056 0.56546336 0.42264098 1.5147084 -0.7442866 0.23300391 -0.02669786 -0.015024383 -0.42220372 -0.21876091 1.0400631 -0.88917404
910 -0.2430389 -0.059913684 0.2601595 0.26408792 -1.0911695 -1.209819 0.16386235 -0.3008266 -1.7227552 1.0350603 0.010713233 -0.59013224 0.35751522 -0.12006647 1.1693451 -0.046198092 0.21164298 -0.18217729 -0.52979237 0.10749911 1.0408899 0.27647176 -0.08724387 0.13561687 1.4891603 1.0630401 0.014126387 -0.018573042 0.17681913 -0.8270215 0.43243983 0.09753742 -0.05214309 0.13634405 -0.80402106 0.78534317 0.27972052 0.33532754 0.18770243 0.26769587 -0.35725594 0.36231616 -0.55684024 -0.27156314 -0.93559444 1.5236808 0.052968163 -0.03304756 -0.3107253 -1.2365727 1.8317492 0.16918097 0.038361825 0.5344217 0.090583965 1.1727884 -0.42494458 -0.052098677 -0.020508438 -0.66481847 -0.16619524 -0.92309403 -0.13836113 -0.059659764
10169 0.7391204 0.61622226 0.8602565 -0.16669662 -0.08272322 -1.2050227 0.15662101 -0.3585945 -1.3208884 -0.28418115 -0.2594121 -0.37740654 -0.17592601 0.37192303 -0.18175802 0.4312554 0.3582831 -0.9322014 0.4601601 0.99036974 -0.022573963 1.4154407 0.5520524 -0.71953595 0.72242284 1.3240391 -0.2978716 0.016040197 0.52231807 -1.3640287 0.31225163 0.5925247 -0.22019015 -0.43385753 -1.4988093 -0.34022495 0.5034579 -0.068529174 0.34461543 -0.7618112 -0.21138674 -0.74440783 -0.33786312 -0.2815829 0.3238405 -0.28002188 -0.72639805 0.022787863 0.21023272 1.3680584 0.9653277 0.1257778 -0.3936361 -0.30580458 -0.30993786 0.15087172 -0.36278376 0.016609633 -0.48920417 -0.28295088 -0.29738942 -0.45011312 -0.040497016 -1.2499509
198653 0.6304864 -1.1108568 0.083649665 -0.40026867 0.3258571 0.18399109 -0.6594338 0.0635603 0.15087532 0.2641508 -0.5152077 -1.3926474 -0.21001257 -0.48861247 -0.13385707 0.24597208 0.37740248 -1.4003294 0.02260107 0.5244657 -0.039784163 -0.04485046 0.69087994 -0.19201526 0.51560116 0.18617497 -0.32365447 -0.19866925 -0.20478559 0.6335724 -0.5702436 0.7195894 -0.76921016 -0.027242566 -0.5714493 0.66154623 -0.3143046 -0.1570037 0.118941575 0.19656609 0.24296585 -0.5580729 0.35560128 0.5074405 0.50900394 -0.44073322 -0.2617355 -0.58856946 -0.7710409 -0.6980367 1.9751893 -0.48246828 -0.108507335 0.65329707 -1.0403116 0.6649747 -0.59618914 0.22921178 -0.5103937 0.84011424 -0.2207391 0.8110925 0.79341716 -1.5633696
6151 0.84320426 -1.2006011 0.77311784 -0.9852463 0.39506438 -0.2561515 -0.6264441 -0.2508048 0.051116895 0.026761737 0.2705201 -0.75454766 -0.76353765 0.14813077 -0.25052866 1.0923753 0.1719302 -1.7613376 0.08979144 -0.012960762 -0.31896758 0.24051896 0.17401242 -0.32598385 0.57080936 0.46930185 0.031646922 -0.7016755 -0.19198301 1.106146 -0.5619155 0.50662094 -0.5466578 -0.025747484 -1.0275693 0.27284712 -0.07291229 0.26203483 0.049125608 0.31218004 0.32373545 -0.786343 0.6110112 0.6808911 -0.2646583 -0.42832518 0.2727469 -0.40107942 -0.5965691 -0.5885019 1.2625118 -0.45790347 -0.2564315 0.63910675 -0.25676537 -0.15897834 -0.22228983 0.40156788 -0.93723506 0.40046084 -0.6681691 0.5380142 1.2936234 -1.2523955
6184 0.9676704 -0.98482597 1.2236018 -0.21070197 -0.14209238 -1.008674 0.25628605 -0.24761668 -0.50480866 -0.7559519 0.44316548 -0.567145 -0.57273436 -0.22484459 0.080982156 0.90169334 0.47538427 -1.3092369 -0.013005843 0.3196796 0.4169884 0.2248742 -0.6335453 -0.8446613 0.746437 0.10135604 -0.38396093 -0.953502 0.29332548 0.32749906 -0.38957125 -0.45114177 0.4760954 1.2636609 -0.5089695 0.33323613 0.64189464 0.44304177 -0.16301537 0.17508255 0.6089645 -1.0682504 0.9203995 1.0910456 0.9568132 -0.14023976 -0.9728086 -0.29776615 0.23006941 -0.97144425 0.4705685 -0.6745516 0.3269364 0.5055466 -0.27482507 0.28015697 0.619057 -0.69215065 0.03441503 0.43235344 -0.45646983 0.26782742 0.57197773 -0.091784336
273152 0.473928 -0.84596056 0.89707804 0.38258782 -0.19669263 -0.3083382 -1.266454 -0.047599755 -0.5552749 0.37629947 -0.4299272 -1.294003 -0.4715855 -0.808378 -0.6177261 -0.2081006 -0.21184038 -0.75699687 -0.105053 0.9601673 -0.36143675 -0.7483701 0.21113853 0.20535699 -0.18135315 0.89302534 -0.4087604 0.0746516 -0.14764771 0.08536824 -0.35093278 0.39825654 -0.7294062 -0.01156411 -0.11790255 -0.08677574 -0.6161937 -0.03864388 0.035667293 0.22122502 -0.8301833 -0.5792046 -0.19950026 0.38904327 0.36966497 -0.2628508 -0.39819172 0.33313346 -0.88784057 -0.2346678 1.1565797 -0.26413664 0.25397053 0.76495904 -0.93593603 0.43136048 -0.8904702 0.36936483 -0.08882348 0.8422195 -0.6308785 0.839593 0.65263003 -1.2239535
853115 0.63319236 -1.3268154 0.60932684 -0.4814669 0.2659089 -1.2486457 0.44869718 -1.5101575 -0.8194812 -0.18507035 -0.20504986 -0.6274834 -0.41893998 -0.6229353 0.79767936 1.4580706 0.242496 -1.0766311 -0.03809205 -0.23535828 -0.2674757 0.38810855 -0.15770784 -1.0468748 0.31097645 0.8233299 -0.62972844 -1.4138709 1.0008972 -1.1529473 -0.5129593 -0.33935022 0.46119884 1.7284001 -0.14292409 -0.43109536 0.21080534 0.6592547 -0.29391572 -0.11312826 0.32113707 -1.0130094 0.5178468 1.3934311 0.11290374 0.12493009 -0.28894627 -0.37100548 -0.5418014 -0.74435884 1.141861 -1.8890296 0.515245 0.26477727 -1.4863136 0.042466115 0.48551208 -1.3504484 -1.5636594 -0.2842064 -0.06302142 0.15341908 1.0819981 0.24335244
20193 -0.6551115 0.5896022 -0.5338224 0.3598375 -0.5238004 -0.3964624 0.342492 -0.7248865 -1.6425185 -1.171342 -0.21396072 -1.4121454 -0.30318663 -0.237583 0.0007592244 0.3633255 -1.2502803 -1.4307562 1.0523998 0.4886215 1.246205 1.3617707 0.039988395 -1.40221 0.07166405 1.4577037 -1.0090625 -1.0784501 -0.20004635 -1.0357891 -0.45732632 -0.15337425 0.17831348 -0.49233982 -0.28013834 0.5391567 -1.2536861 0.029337002 -0.8565913 -0.08639675 -0.19947097 0.117385484 0.587409 0.750837 -0.22340325 0.58083886 0.16004407 -0.6537439 -0.7367457 -1.0095642 0.31423265 -0.57493496 0.6023965 0.49134618 -0.6296132 -1.6213809 -1.4334047 -1.08754 -0.8882393 -0.89832157 1.1546689 -0.2124531 0.13989848 -0.42164525
19621 0.31886354 -1.431685 0.25691363 -0.3401814 0.07885885 -1.0476294 0.252169 -1.008801 -0.6006655 -0.31851333 0.17323345 -0.597977 -0.5382887 -0.83629674 0.6682156 1.0382876 0.41045168 -0.8099033 -0.2939031 -0.21705648 -0.4785404 0.26198876 -0.11217978 -1.0565015 -0.07005325 0.5598857 -0.56266695 -1.2646408 0.56454015 -0.58151525 -0.015297359 -0.54663765 0.14147274 1.386291 -0.30181625 -0.34332955 0.24841246 0.54742974 -0.15302959 -0.033121947 0.2080804 -0.5273136 0.62686145 1.0658042 0.34054434 0.36104938 -0.6576146 -0.0777133 -0.04711103 -0.3780549 0.927744 -1.6341046 0.29228324 0.29021212 -1.1106855 0.06439363 1.0199668 -0.91155356 -0.992958 -0.14083873 -0.1294632 0.004213873 0.8228227 0.3194722
67415 0.20375583 -0.3925317 0.24827443 -0.6849649 -0.08361401 -0.90314347 0.29036412 -0.40970996 -1.1401474 -0.3981493 -0.15522225 -0.67386127 -0.014142025 -1.0296563 -0.27739158 0.3587413 -0.1168392 -0.9059382 0.26334873 0.851091 -0.18426856 0.6002803 0.922381 0.23265538 1.5620157 0.5687016 -0.5039908 0.04344937 0.7740627 -1.1078024 0.34847426 0.09356697 0.8358477 -0.41464266 -0.18662478 -0.14654036 -0.34102163 0.23318852 -0.4878198 -1.0165321 0.026618812 -0.5522823 -0.6273264 -0.7782691 0.50390476 0.9322494 -0.11130655 -0.1993877 -0.16164665 0.2561451 0.64455473 0.57614684 0.47451848 0.33384863 -0.13336793 -0.32203928 0.35109106 -0.8538246 -1.0712022 1.0141488 -0.67046654 -0.8684548 -0.4330954 -1.0331482
64519 -0.09474334 -0.8456338 0.68758243 0.73620313 -0.7158975 0.21845312 -1.0838832 0.09636518 -0.1916146 0.08126092 0.74614674 -0.7261802 -1.389754 -0.8286739 -0.3633464 0.31475097 0.61177933 -1.1001701 0.1759144 0.5715803 0.53540474 1.0606432 0.86109 -1.3447814 0.16127823 -0.26995075 -0.08751784 -0.40993077 0.39999214 0.20636846 -0.75225884 -0.29598138 -1.0728126 0.16139369 -0.98552316 -0.14783813 -0.6418838 0.53046846 0.22444563 -0.035077307 -0.5250595 -0.7026298 0.21214212 -0.26059332 0.14288448 0.60795146 -0.82636136 -0.20521455 0.44128132 -0.47076622 2.475803 -0.15517417 0.4688021 0.4481466 -1.6363515 1.1522678 -0.35586733 0.3876387 0.5695734 0.9148137 0.25545937 0.94520956 -0.5748104 -0.8592535
4330 0.46400926 0.39492723 1.9195501 0.014540276 -0.41617438 -0.5177315 -0.2981571 -0.76219964 -0.33095446 -0.14844307 0.4498836 0.21258909 0.72308755 -0.518282 -0.24524288 0.3615156 0.44932643 -0.3949171 0.12457458 -0.35085642 0.042623404 -0.6260698 0.5068564 0.15802959 0.33397686 0.44195232 -0.35962406 0.18113346 -0.1762304 -1.1998985 -0.2744348 -0.07865392 -0.923155 -0.21789601 0.23581709 -0.83819413 0.18032922 0.48246393 -0.19856897 -0.16046351 0.20302644 0.37567183 -0.38810885 -1.435628 1.160099 -0.23627737 -0.038996495 -0.24567044 -0.5197615 -0.19796543 1.1436348 -0.6548227 -0.5457501 0.24972947 1.1091834 0.69749576 -0.7287236 0.018976096 -1.2465181 -0.23357171 -0.17073528 0.4029446 0.37681028 0.53088987
37483 -0.014801347 -0.50672984 0.6039339 0.65560573 -0.8071108 0.48431227 -0.9264155 0.14590049 0.076248765 0.27302086 0.12010751 -0.70804536 -0.8756116 -0.95566136 -0.5681896 0.32258838 0.6876961 -1.1896706 0.08235135 0.63236487 0.25972652 0.8481369 0.79488665 -1.2811154 0.23942989 -0.21069497 -0.059825487 -0.4255273 0.15777582 0.42120776 -0.88952935 -0.29207438 -0.982537 0.6484781 -0.8557186 -0.2204401 -0.22166187 0.3637513 0.22580436 -0.0018673795 -0.3282837 -0.6357709 0.34205714 -0.18018158 0.123438396 0.3510699 -0.45228478 -0.17202772 0.1385207 -0.19974637 2.5359466 -0.082747295 0.41146955 0.059003353 -1.4615457 1.2082398 -0.21174577 0.04230145 0.2541719 0.77102554 -0.14108169 0.395654 -0.8491229 -0.9361678
642621 0.56522673 -0.21301621 1.479804 0.16742907 -0.19829857 -1.1522726 -0.40209568 -0.9406357 -1.6605437 -0.50045025 -0.58012944 -0.79362005 0.640018 -0.13554725 0.3757958 0.7126506 -0.2906299 -1.1331439 0.3222996 -0.16364259 0.8486549 -0.6183488 0.90508175 -0.73004204 1.3176129 -0.006739908 -0.011853848 0.08250621 -0.8083535 -1.0891815 0.7610048 0.27912632 -1.6025916 -0.5098671 -0.39253753 -1.1988516 0.21636099 1.6228067 -0.27686438 -0.15297009 -0.076427236 -0.45177257 0.10965969 -1.8602228 0.4270309 1.4439402 0.6595532 -0.30980057 0.16430146 -0.10925476 0.32092422 0.17271201 -1.3091487 1.4179745 0.18555431 0.8281888 -0.49836212 0.2469588 -1.878086 1.1134908 0.1592156 -0.020290742 0.33798382 0.47360083
5086 0.15319017 -1.4616891 1.4212694 0.99209607 -1.1997755 -0.76910347 -0.48354414 0.21940888 -0.31448528 -1.6888131 -0.28598243 -0.6549366 -0.38206697 0.01029772 0.22744234 1.8337681 -1.012556 0.07361468 0.38088873 0.838666 0.94318557 0.22596885 0.3740225 -0.6044975 0.30962718 -0.56465787 -0.590831 -0.035655886 1.3015437 -1.1236265 -0.64531875 0.13421705 0.45024773 -0.8508311 -0.22278573 0.40579385 -0.4178467 0.18841761 0.70184624 0.6714723 -0.180849 0.6017827 0.32100043 -0.59041214 0.16630179 0.20872162 0.5358604 -0.30844072 -0.26354897 0.057242334 1.4884032 -0.47321245 -0.063826405 0.54979604 -0.28652617 0.29409832 -0.48017702 -0.190981 -0.9337265 -0.5009853 -0.2996114 -0.2759889 1.0971283 -0.23772074
644577 0.5853214 -0.534097 1.4346507 0.17728539 -0.0967178 -1.4667001 -0.3437341 -0.5532988 -1.8966576 -0.93877864 -0.6879245 -0.99518824 0.6690242 -0.023710206 0.2650106 0.54425037 -0.27489412 -1.5695823 0.2962388 -0.3169816 1.0708091 -0.97673726 1.0099024 -0.5488074 1.2602016 0.49874386 0.15135838 -0.39204136 -0.9074448 -0.88597214 0.33195812 -0.066670276 -1.247978 -0.52257955 -0.7195095 -1.0830276 -0.24236614 1.3902087 -0.4542993 -0.0040185563 0.004116704 0.05720145 -0.44607133 -1.7779437 0.5537286 0.85333765 0.7869077 -0.40873677 0.10285096 0.20461874 0.48640075 -0.09032029 -1.1882427 1.3201993 0.66454905 0.9347857 -0.59690964 0.060754493 -1.2010461 1.0000125 -0.13467222 -0.13491285 0.54142517 0.33818588
32083 0.29268053 -0.9166072 0.9999431 0.31053895 -0.2568049 -0.105832435 -1.2874346 -0.2917428 -0.40993094 0.25964725 -0.3873541 -0.86324614 0.7124123 -0.54089546 -0.66597617 0.09784025 -0.52494353 -0.22693285 0.29800344 0.6745516 0.28429943 -1.2665395 -0.04333514 -0.7342556 -0.20668961 1.3840729 0.37044913 -0.061558764 -0.5915824 0.33605042 -0.2597472 -0.21299598 -0.926707 0.29004192 -0.15722677 -0.9068726 -0.8458844 -0.20718907 -0.098268814 0.68277824 -0.27559048 0.06300304 0.23227365 -0.23179504 0.91759723 0.24224928 -0.9810031 0.1245499 0.64962673 0.0046557146 1.0130938 -1.277628 -0.15911244 0.8592603 -1.1383452 -0.12535861 0.14659022 0.6508953 -0.14286132 0.8232564 -0.4367432 0.2687585 0.4357281 -0.40668452
27895 0.29483092 -0.027178736 1.1275657 0.21210025 -0.7301345 0.21322659 0.085781254 -0.3983607 0.021637715 -0.50703925 -0.3056086 -1.4967593 -0.36332113 -0.99187815 -0.61282086 0.32755822 0.17991151 -1.6391723 -1.6337503 0.29834962 0.90603894 0.80893445 1.0419873 0.026206423 -0.14879629 1.1064618 -0.8280244 -0.71006376 0.41096273 -0.86801094 0.37316748 0.02499869 0.2802204 -0.11284317 -0.94233227 -0.39262262 1.1141775 1.6400042 -0.52332735 -0.6781418 0.6434718 -0.96207803 0.22186613 -0.21526673 0.19441 -0.30832142 -0.29418114 -0.6707606 -0.43295783 -0.3285007 0.29819807 -0.027100606 -0.015087894 0.8255435 0.05506938 0.116632886 0.18583126 -0.22721188 -1.1191977 0.94028 -0.046767466 -0.698832 -0.01297981 0.4328649
41714 -0.34921888 -1.1993839 1.2937087 -0.41891247 -0.63192904 -0.6774164 -0.8190779 -0.96901226 -0.33722287 -0.20831692 -0.47752762 -0.8722248 -1.5860629 -1.0216808 -0.85999703 0.1666155 -0.73195344 -0.36083442 -1.3383073 1.863076 -0.903004 0.34725374 -0.40745157 -0.53327835 0.70091355 1.1677395 -0.95631343 0.20753391 -0.3946334 -0.22050782 0.2636811 1.0335355 -0.33557722 0.9263842 -0.47050127 -1.2742163 -1.4678013 0.04244691 -0.48704165 -0.071906306 -0.36811563 -0.38871717 -0.31735727 0.066136725 0.2773947 0.061932217 0.5159872 1.263787 -0.4243124 -1.0790424 0.63761777 -1.1915689 -0.25728044 0.20547116 -0.110704385 0.7623986 -0.47124016 -0.19434182 -0.046382546 1.761243 -0.06370957 0.45182562 1.1053294 -0.25733125
141342 0.5402178 -0.8819227 0.8871867 0.50011826 -0.2729364 -0.35544446 -1.3292298 0.06309031 -0.45579144 0.09994625 -0.58166313 -1.0606055 -0.2555208 -0.636284 -0.36683133 -0.2516269 -0.2728728 -0.4995715 0.16038105 0.95808727 0.39971703 -0.94452786 0.4105118 -0.7581556 -0.114410624 1.1411991 -0.32518718 0.09161019 -0.076805435 0.043037884 -0.41055465 0.41548353 -1.1491818 -0.011700786 0.27228543 -0.49476352 -0.89241654 0.15781607 -0.43825224 0.5540002 -0.31509453 0.21853788 -0.28787604 0.22932866 0.19184855 -0.16372162 -0.54637766 0.5436622 -0.2966147 0.23786214 0.8212881 -0.6674917 -0.0726189 0.8582932 -1.1774561 0.057866476 -0.5712828 0.4622726 0.038662963 1.2549338 -0.6098716 0.62322515 0.6939231 -0.80686057
29492 0.63893265 -1.1042894 0.36778757 -0.47997347 -0.5685884 -1.6258817 0.5684673 0.25723624 -0.73534596 0.09737611 1.1275176 -0.32594332 -0.6963259 -0.9635084 0.29889804 1.1903231 0.40056494 -0.21940334 -0.16818792 0.7090081 0.30572787 -0.50424486 -0.044459146 -0.98232687 0.9617879 0.754681 -0.57123303 -0.61960006 -0.74063015 0.25302747 -0.13325077 -0.202432 0.31234103 0.633562 -0.59780353 -0.0695439 0.40751067 -0.28565136 -0.17238922 -0.9534289 0.98248255 0.24244584 0.12327456 -0.49139348 1.0433953 -0.053139914 -1.1053635 -0.68585986 -0.17120035 -1.3963604 0.571997 -0.77669567 -0.30628595 0.833474 -0.3190708 0.1301212 0.33652678 -0.53602797 0.090526246 -0.18119207 0.35656086 -0.3094382 0.7635127 0.6342064
114 0.6355314 -0.95943 -0.14605238 -1.0707703 0.29529157 -0.6941952 -0.3698069 -0.21727006 0.54523546 0.43449157 0.26929992 -0.50521415 -0.11766417 1.2881964 -0.5783094 0.90012896 -0.61230654 -0.64325225 0.031970154 -0.06576841 -0.82614744 0.22564292 -0.008647025 0.2304396 0.8996282 0.37645483 0.27180782 -0.48471907 -0.60562605 0.1238816 -0.032808606 0.556974 -0.23083538 -0.7816096 0.017575074 0.53272426 -0.112076975 -0.573163 -0.45156938 -0.1272842 -0.5021783 -0.17726274 0.50832444 0.4450071 -0.6507943 -0.5170596 0.70157 -0.41393974 -0.39744273 -1.2165971 1.6988728 -0.5128371 0.25770333 0.8566306 0.3237412 -0.4405644 -0.90894884 0.22464511 -1.8537301 0.16420886 -0.41593152 1.0839267 0.93280894 -1.1302866
2440 -0.09187136 -0.4307968 0.57563776 0.8646044 -0.7714965 0.30833682 -0.8547122 0.2270128 0.16279568 -0.18120603 0.05740571 -1.1366276 -0.77596706 -0.68593866 -0.36043283 0.3795348 0.569859 -0.91609216 0.23760542 0.2746269 0.15009621 1.1863917 0.77949387 -1.1332533 -0.03245473 0.13254124 0.11179452 -0.33339417 0.2902018 0.14056124 -0.5705849 -0.578818 -0.9448225 0.37952965 -0.70422894 0.2809426 -0.39241633 0.285907 0.27837995 -0.3037765 -0.26665998 -0.66585374 0.40191004 -0.17196351 0.10222022 0.22419327 -0.6505293 -0.4370329 0.17495699 -0.1795023 2.2108128 -0.34230793 0.57393587 0.4257006 -0.95709854 0.93527997 -0.19025835 0.12377931 0.51519126 0.7180012 0.15325336 0.5809967 -0.7062976 -0.78447634
153063 -0.56414366 -1.1871314 0.7469621 0.39867762 -0.4621699 -0.8055733 -0.11698423 -0.86095494 -1.6048607 0.3338346 0.490105 -0.16966861 0.06979525 -0.48663527 -1.7771053 0.13967155 -0.3218692 -0.39074332 0.45281056 0.9591184 0.12520324 0.63848716 -0.55401015 -0.3634217 0.06260534 0.054977994 -1.7296128 -1.193176 -0.4164137 -1.6797097 -0.45691764 0.23571123 0.66387945 -0.020951495 0.43719018 -1.7731385 0.041693836 -0.5012523 -0.9095962 0.65080476 -0.16789906 -0.4156773 0.46866405 -0.16955043 0.5912156 0.7232459 -0.20142077 -0.20022342 -0.25801486 -0.89735276 1.9452212 -0.27593672 -0.72367036 -0.36673447 -1.250264 -1.1680237 -1.1058066 -0.18803282 -1.6587255 0.39327952 0.556782 0.14705247 -0.8268734 0.42642266
3112 -0.9894935 -0.06815355 0.4302277 0.5757654 -0.68391657 0.25696656 -0.78666 -0.53079844 -1.2873627 -0.22379367 0.21266474 -0.48003262 0.6262014 -0.4812602 -1.2765061 -0.17662594 0.19053741 -2.0957727 0.88218397 0.47449422 0.70122814 -0.51538587 0.820892 -0.13352162 1.3729167 0.16025044 0.20530534 -0.22872476 -0.031326342 -1.0596659 0.69071275 0.1872752 -0.5159989 0.23930636 -0.8799455 -0.5616618 -0.20212732 0.1007845 -1.4648054 0.42440856 -0.5663799 -0.2644241 1.0338391 0.08272826 0.38117617 1.0332917 -0.63988256 -0.1620481 0.35043743 0.03696053 0.8311007 0.67167413 -1.1742109 1.3343412 -1.4722217 -0.87308466 -0.70340437 0.024517106 -0.5078728 -0.088669166 -0.06850375 -0.41252005 0.80602336 -0.2775794
12195 0.04482368 -0.45085394 0.13285962 -0.59393084 -0.13047315 -0.7864772 0.1691459 -0.5735373 -1.0158904 -0.646788 -0.19537929 -0.84296185 0.03413946 -1.0216954 -0.23555993 0.24314333 -0.27033305 -0.8952948 0.43773428 0.7736413 -0.035471037 0.41546273 0.6542917 0.16679758 1.5279526 0.6236332 -0.4546372 -0.14143822 0.6366627 -0.9554303 0.37667578 0.05856632 0.6479803 -0.23575464 -0.19715226 -0.05456053 -0.5221282 0.4230519 -0.82822984 -1.1424872 -0.053455 -0.652557 -0.6339792 -0.4272687 0.33340618 0.8010763 0.0092922505 -0.3046183 -0.22389096 0.3584441 0.66919696 0.4977677 0.5842231 0.20899642 -0.026050039 -0.39450678 0.39297104 -1.0019013 -1.1471431 0.8460107 -0.9012987 -0.66133416 -0.34885556 -1.0722986
12210 0.048929255 -0.2447133 0.15184629 -0.2537024 -0.2939905 -0.586729 0.09787857 -0.0009236774 -1.0755845 -0.5745795 0.20564868 -1.351455 -0.029719178 -0.73502576 -0.6523211 0.32638115 -0.31191632 -0.49056286 0.48312736 0.5510041 -0.14857052 0.42326686 0.5950241 0.21580133 1.439668 0.368813 -0.4607118 0.14734438 0.30077887 -0.99953496 0.060415853 0.061659638 0.47021547 -0.5415503 -0.20176227 -0.3706908 -0.31470582 -0.44834024 -0.42263868 -0.28742537 -0.21705446 -0.29988864 -0.7701102 -0.49730363 0.77103406 0.9356083 -0.14762051 -0.2978237 -0.34445783 0.6312191 0.7400579 0.82770073 0.4780722 0.7867104 -0.11929403 -0.38408872 0.5603547 -0.917317 -1.2484016 0.46460947 -0.6393525 -0.60436225 0.033139102 -1.1725066
8703 0.117018305 -0.5502902 0.3621688 0.7839583 -0.24661246 0.58218557 -0.39322194 -0.32259437 -0.35679784 -0.913149 -1.0157815 -1.242644 0.4198404 0.3877029 -0.6167284 1.258037 -0.14215823 -1.3013248 -0.7204396 -0.07881969 0.7413755 0.6397336 0.01712255 0.3622911 0.13558021 1.3286382 0.27028057 -0.7898431 0.3797938 -0.87668467 -0.65660167 0.4457985 1.0277104 -0.5416988 -0.8862307 -0.36388195 0.30749545 0.8509823 -1.4278634 -0.11261272 -0.2242924 -0.9119443 0.5336503 0.31001946 -0.008566859 -0.07326799 -0.31720784 -0.46934322 -0.5913317 -0.42032748 0.6721094 -0.6156926 0.03207537 0.42997393 -0.7824993 -0.38863182 -0.06895442 -0.31637436 -1.7980763 0.46459103 -0.044866912 -0.019842368 0.035354707 0.18194662
6913 0.40316156 0.18716013 1.952046 -0.03913934 -0.15877478 -0.5597081 -0.38562113 -0.7466507 -0.9651364 0.70045584 0.46333718 -0.37675756 0.5811266 -0.2554144 0.0062650456 0.2615022 0.21286093 -0.2430973 0.276485 -0.6645927 0.45586157 -0.63266176 0.52906525 -0.5598281 0.41220742 0.31706616 -0.54304963 -0.13046217 -0.55048203 -1.2713724 -0.10338983 0.10581794 -0.9731327 -0.31714138 0.11749551 -1.2080001 0.08225846 0.64770865 -0.49658012 -0.044317707 -0.00766134 -0.068999045 -0.67244905 -1.8801602 0.7737068 0.21425544 -0.28736302 -0.1090086 -0.3583295 -0.18572655 0.9009701 -0.42709872 -0.7114813 0.004580921 0.89708215 0.9791715 -0.7172141 0.28879115 -1.4016222 0.28224853 0.18045726 0.6026875 -0.077700086 0.39651072
3191 0.22753112 -1.4637161 1.2787772 0.94595194 -1.3316559 -0.5097882 -0.5066941 0.64269346 -0.51332754 -1.5144538 -0.4555476 -1.2185938 -0.84101385 0.13391393 0.6867056 2.0559025 -0.9011968 -0.017349917 0.402503 0.7490034 0.99716383 0.46160737 0.67449355 -0.5193573 0.32715338 -0.6905077 -0.6551376 -0.04483174 1.5234144 -1.2047985 -0.7406654 0.37681845 0.49513772 -0.8246815 -0.33898434 0.42966676 -0.44951716 0.104315475 0.5070911 -0.020020178 -0.19670047 0.66484296 0.23439103 -0.37337878 0.23780204 0.22058119 0.6002498 0.07475588 -0.13835725 0.038995225 1.4924102 -0.33240563 -0.010107425 0.6515828 -0.42824727 0.5224791 -0.29102662 -0.52013785 -0.3504554 -0.2641153 -0.2204577 -0.561435 1.2796656 -0.27788842
6214 1.0042801 -1.1711284 0.8522599 -0.6948397 -0.05135284 -0.36610854 -0.1387991 -0.39213726 -0.26402375 0.13813195 0.3583586 -0.69071394 -0.7496043 -0.13682286 0.28538287 0.66178066 -0.15354589 -1.5348244 0.0962783 0.2302758 0.16076544 0.4995546 0.1693626 -0.13530622 0.5621025 0.36751226 0.09858965 -0.9109687 -0.048662916 0.8626962 -0.9294283 0.053245623 -0.69522417 0.089031816 -0.2072145 0.23549052 0.4218505 -0.11068544 0.14983672 0.1723695 0.35898775 -0.5315224 0.52206755 0.75752145 0.022542004 -0.17986469 0.06324071 -0.48659444 -0.36998144 -0.30355504 0.57355964 -0.5592332 -0.08034573 0.577222 -0.17350027 -0.57119995 0.38027328 -0.041691188 -0.33609757 0.52237326 -0.73664165 0.37883842 1.0880702 -0.71541077
4804 0.07100114 -0.3513936 0.45706925 -0.32228574 -0.44424897 -0.5707402 0.06731483 -0.16660275 -0.887753 -0.5552137 0.6373016 -1.2400057 -0.16617459 -0.3509171 -0.64727813 0.35682628 0.2332284 -0.3362636 0.4489483 0.5298253 -0.17244865 0.6889308 0.5816059 0.38572353 1.6905843 0.31884232 -0.37730646 0.20723397 -0.18905908 -0.60011667 0.09172338 -0.12063068 0.09951129 -0.5105808 -0.08085582 -0.25274482 -0.5851756 -0.4435318 -0.40830672 -0.31231043 0.10972333 -0.52462864 -0.25100458 -0.5106193 1.0423404 0.49524713 -0.04173806 -0.42615595 -0.35372376 0.85517526 0.8596623 0.82456714 0.45692992 1.0164442 0.20573084 0.011793129 0.8167411 -0.911168 -1.0968435 0.47734538 -0.49738586 -0.67700684 -0.22491948 -1.0100754
2665 0.15443887 -0.49671975 0.88313997 0.3654839 -0.4311001 -1.1687375 0.14973256 -1.1621785 0.2930242 0.2235454 -0.93345654 0.33443284 0.21748784 -0.52867264 0.20314299 2.3206346 0.9482352 0.5325651 0.28915125 1.5532933 -0.1336534 0.95065075 0.30336472 0.16703185 0.34877083 0.9362673 0.059462614 -0.1924991 -0.25216904 -0.37423864 -0.09597122 0.40491927 -0.73046726 -0.4979247 -0.14135662 -1.0311689 0.034450285 -0.53287756 0.24307407 -0.6812774 -0.307933 0.6930949 1.1003449 -0.7901562 0.102551 0.9757441 0.75850385 -0.61882395 -0.27437013 -0.9719682 0.81314 -1.5408348 0.9395722 -0.46461558 -0.31660104 0.074003905 0.3999468 -0.26676035 -1.505011 0.2990847 0.33346847 -0.16347268 -0.5231197 0.24054101
15076 -0.12515208 -0.88563395 0.8053628 -0.33029562 -1.2282729 -1.4697154 -0.20877601 -0.03265932 -2.152321 1.3495395 0.39313543 0.06409832 0.25017712 -0.24187367 0.619548 0.6488613 0.16408615 -0.3526846 -0.31961462 0.846212 1.381108 -0.7444404 0.56340015 -0.029679514 1.8700132 1.6080563 -0.17103748 -0.4444145 0.25008637 -0.9618422 0.15928169 -0.35430115 0.2833553 0.89292556 -1.4595064 0.14935184 1.0013058 -0.21015985 0.40683287 -0.13239211 -0.08846621 -0.005975303 -1.0314599 -0.6720971 -0.15983652 0.9889868 -0.36468592 -0.935074 -0.18933618 -0.58408487 1.241588 -0.5844512 -0.05019226 0.58968467 0.089247905 1.1505606 -0.6334567 0.07093971 -0.20313108 -0.5582982 -0.0109944185 -0.7132519 0.4604502 0.30655965
10183 -0.7473084 -0.09670484 0.016278215 0.6778761 0.074956164 0.17732458 -0.5250063 -0.82739556 -1.3191904 -0.7291491 -0.28243086 -0.3829778 0.8905315 -0.35676587 -0.77770585 0.5129923 -0.2609903 -2.228034 1.0624791 -0.08291167 0.79236406 -0.83373797 0.6101427 -0.73797476 1.1622999 0.34016874 -0.08248395 -0.61363184 -0.36115938 -0.90898365 0.19928649 -0.63136107 0.35949865 0.77333367 0.17906919 -0.2659044 -1.1714712 0.17602357 -1.5130606 -0.0023879008 -0.8763771 -0.8624483 1.0370938 0.88210744 0.19433151 0.8277955 0.38081458 0.050070252 -0.2013305 -0.20106909 0.6454532 -0.5363552 -0.28511918 1.3292824 -1.107512 -1.5748667 -0.74817866 -0.19018617 -1.0134004 -0.6178476 0.12370274 -0.27025303 0.9406458 -0.97383225
38537 -0.5222287 -0.3470596 1.0488423 -0.3589881 -0.15477969 -0.30809253 -0.19942464 -0.29873335 -1.1765616 0.00962491 0.8984431 -0.5260979 0.5897794 0.2569069 -0.7990271 0.23094617 -0.66046184 -0.00084884325 0.17820922 0.053680014 0.06193351 0.26983714 -0.1782037 0.50027937 0.34922522 0.090396985 -2.0728822 -0.61959124 -0.23850518 -2.1167674 -0.6780265 0.44462326 0.6596913 -1.1806821 0.7442592 -1.4834533 0.020334369 1.1003995 -0.20880477 0.26696536 0.6727396 -0.09328239 0.09028075 -0.9199225 0.71700317 1.0571775 0.090572305 -0.49849448 -0.7147852 -0.28237692 1.1717362 -0.1627365 -0.19778425 0.1694332 -0.2548125 -0.661795 -0.8506646 -0.35418797 -1.9535341 0.38197938 0.46985835 0.0043811607 -0.94944674 0.7870373
144408 -0.056395642 -1.37928 -0.059428263 -0.39567322 -0.25027302 -1.1804844 0.10988858 -0.45350298 -0.8729672 -0.048794545 0.36717623 -0.2642747 -1.1126972 -0.9777671 0.5614505 1.2532746 0.34247288 -0.25984874 0.6363278 1.320514 0.2677872 -0.49898437 0.26441234 -0.27466232 1.511664 0.9703812 -0.5042774 -0.91165036 -0.7035637 -0.25036386 0.3798589 -0.75071186 0.3958521 0.69901305 -1.0994841 0.0796444 0.6932979 -0.38788873 0.18504459 -0.8817125 0.34805763 0.42243266 -0.2275511 -0.6956445 0.9482899 0.33039203 -0.6145796 -1.1523361 0.1210741 -0.8937796 0.32952788 -0.5353202 -0.14424081 0.5299498 -0.08779032 -0.060395382 0.15763976 0.018406477 -0.23032196 -0.07355187 0.25791115 0.08926422 1.1108038 0.7987606
77758 0.23093407 0.80080825 0.74231875 0.65267444 -1.1717122 -0.813215 0.62303215 -0.5880645 -1.705841 0.6060109 0.060446978 -0.14232568 0.255534 -0.45798758 0.9486507 0.41313583 0.60867125 -0.28878433 0.14919432 0.20413342 0.82162344 1.3633612 0.25709802 -0.51020646 1.2401925 -0.040866796 0.8635854 -0.1632428 0.34037203 -0.36456478 0.48126024 -0.028080044 -0.87635607 -0.5541489 -0.62087023 0.24968731 -0.12570868 0.55235875 0.013572899 0.5475498 -0.66123116 0.7032999 -0.0071635884 -0.20578285 -0.22878274 1.4509798 0.082663156 0.09590321 0.014099327 -0.4797936 2.155914 0.727788 -0.56158906 0.3549995 0.36538386 0.7697936 0.11115227 -0.33620694 -0.12257674 -0.33853984 -0.19843787 -1.008388 -0.82006925 0.16137797
3192 0.28615725 -1.4659923 1.3897947 1.0847515 -1.2473093 -0.46490657 -0.644447 0.21672852 -0.39911774 -1.6832172 -0.5562198 -1.160628 -0.849512 0.121038154 0.4255838 2.006455 -1.2059395 0.027542815 0.40396458 0.92812127 1.0285764 0.394402 0.6155638 -0.49455035 0.43433684 -0.8262961 -0.25542456 0.07229442 1.3554425 -1.3347874 -0.5530377 0.12865898 0.49727678 -0.8321845 -0.36086553 0.6238942 -0.474896 0.026021667 0.71446043 0.14559394 -0.23732091 0.6922045 0.4455353 -0.49843895 0.19413453 0.15182912 0.6515593 -0.3423127 -0.11227245 -0.16208415 1.571269 -0.456735 0.054278232 0.6793451 -0.26526946 0.260066 -0.3634178 -0.7635805 -0.64955604 -0.0764501 -0.11738893 -0.33768597 1.2037537 -0.24760878
25702 0.28483206 -0.5955702 0.7723064 -0.3208308 -1.0885909 -1.6400111 0.13291834 -0.14741607 -1.8296512 1.1058996 0.3621786 -0.04833893 -0.33469126 -0.15950866 0.5546931 0.5862727 -0.14305992 0.015820445 -0.6735946 0.853393 0.99472195 -0.3344905 0.26724625 -0.0072277626 1.9271914 0.95868784 -0.12067787 -0.15446724 -0.018670358 -0.90064514 0.44847584 -0.19898674 0.09972554 0.63890433 -1.2518604 -0.05031517 0.9723226 -0.12634951 0.516227 0.014844418 -0.30404148 0.027439587 -0.94625366 -0.72411776 -0.15763511 0.82477725 -0.25478894 -0.8069744 -0.17988013 -0.77372456 0.8403708 -0.36324894 -0.116873644 0.34193826 0.090693615 0.88284755 -0.488251 -0.07806616 -0.5608163 -0.45376307 -0.0032165176 -0.33173898 0.6184335 0.5215921
12576 0.18550782 -0.57495254 0.5566202 -0.3630515 0.8000532 -0.3357213 -0.9804214 -0.36992824 -0.27086696 0.2381226 -0.53586423 -1.0702094 -0.71212065 0.7558216 -0.18518561 0.2281845 0.32792455 -1.2048099 -0.18789166 1.5238736 -0.45511517 -0.26010123 0.21388325 -1.1367718 0.033436578 1.4142381 -0.72857636 0.065578155 0.069077566 -0.34876972 0.90914243 0.47826326 -0.6003044 0.46108377 -1.067683 -0.021553347 0.95161194 0.43487042 -0.1434325 -0.1485397 -0.3929483 -0.17143588 0.3510364 -0.16328691 0.65202236 -0.87158096 -0.23122898 0.5768865 0.045537718 -0.5019134 1.1815588 0.107315294 -0.48136055 0.042919166 -0.21198721 0.3144205 -0.73343337 1.1562566 -0.6520849 1.2526346 -0.7038356 0.33346066 0.7899673 -2.0439763
51049 0.07284012 -1.0773307 1.1644789 -0.025135888 -1.0401381 -0.06179658 -1.3064976 0.07221675 -0.07836707 -1.0351677 -0.15710315 -0.99320555 -0.88172233 0.037247557 1.1577121 1.1815863 -0.3844491 -0.44126347 0.10112443 0.59494567 0.5793531 1.3440651 0.09587761 -0.27644756 0.55873895 -0.22688651 -1.4429256 0.5080762 1.2450881 -1.6479675 -0.65617627 1.0317492 0.7003316 -0.89359987 0.16821651 -0.58624554 -0.62448835 0.48203245 0.5765924 0.19323301 -0.11372144 0.625074 0.52893096 -0.24817918 0.11717206 0.5726019 0.87867194 0.5764554 -0.0009787781 0.19628814 1.0731227 -0.98737055 -0.28057167 0.55522996 0.051281862 0.4687858 -0.84359 -0.94011337 0.27254272 -0.40189135 0.13329497 -0.6237664 0.72652715 -0.1969101
73146 -0.28029186 -0.53042483 1.130936 -0.03432099 -0.7285664 0.5928042 0.046248853 -0.94762474 0.30541578 -0.660062 -0.8823331 -1.0946817 -0.3074291 -0.04719666 -0.63671446 0.7585171 -0.3015971 -1.6178652 -0.65341043 -0.011883486 0.4874581 -0.04580571 2.021649 -0.029244019 0.27060756 0.64025885 0.5636525 -1.1337246 1.1348553 -1.2173163 0.2214243 -0.46444097 -0.6265309 0.55991966 -0.7588262 -0.56356937 0.52825516 1.358601 -0.8190762 -0.9271518 0.23847903 0.02799636 0.33352542 0.1053377 -0.55350095 -0.6786105 -0.1483286 -0.47953308 -0.8071226 -1.0216594 0.8086807 -0.1607262 -0.82169014 0.9548541 0.2373774 -0.65530616 -0.2072908 -1.5484798 -0.73205596 0.28729197 0.030307984 -0.66099715 1.184379 -0.086369105
89416 0.594274 -0.25737193 0.693101 -0.52102685 0.1482422 -1.5792042 0.22200942 0.0013398208 -0.40862092 -0.60982734 -0.8131478 -0.98718554 -0.17295083 0.57218957 0.6326777 2.0350144 0.2675281 -0.6586309 -0.3723028 1.645619 1.0587871 -0.49258026 0.5281008 -0.59097475 0.8103524 -0.21628486 0.40215358 -0.36288804 1.0055996 -0.6151755 -0.06061912 0.079363324 0.06703058 -1.2911866 -0.2502988 -0.17417538 -1.1159942 1.5053109 -0.87717706 -1.5460397 -0.42149097 1.3971708 0.9786509 -0.34279895 0.6177933 0.32578412 -0.32976702 -0.3568798 -0.13941461 -0.43776655 0.42531773 -1.252846 0.26814735 0.3619835 -0.0769527 0.289615 -1.819456 -0.06598434 -0.524518 -0.36135852 -0.64458615 -0.3800587 -0.05339747 0.10686998
44455 -0.3193892 -1.5047852 1.3959843 -0.5304121 -0.57020265 -0.631705 -0.87986267 -0.970862 -0.4446188 -0.07791226 -0.4849861 -0.8892334 -1.596964 -0.9521892 -0.8413139 0.095525056 -0.54381347 -0.18072273 -1.1610703 1.8328016 -0.9629802 0.35613948 -0.30815998 -0.38450643 0.7809997 0.9317336 -0.6235354 0.29054397 -0.47285402 -0.44663885 0.5599694 0.9927481 -0.16231313 0.8177503 -0.40811864 -1.0102217 -1.4111719 -0.085614406 -0.5028483 -0.063210614 -0.27874693 -0.44475988 -0.23653558 0.1443745 0.19417506 0.20731184 0.6515833 1.1933057 -0.3426935 -1.0297917 0.7472407 -1.0256408 -0.1519604 0.35987943 -0.19994852 0.48919147 -0.24607764 -0.35618094 -0.12559663 1.9440758 -0.034691386 0.4998193 1.050154 -0.32516024
7532 -0.34119302 0.24421671 1.3771585 -0.9235656 -0.0011844098 -0.5677042 0.79037225 -0.3588542 -0.71979487 0.2070622 -0.1594574 -0.27920857 -0.6464378 -0.17810088 0.5963591 1.8564421 -0.58022857 -0.93812144 -0.2202039 1.2276094 0.49672782 -0.53617203 0.44652948 -0.712312 0.9362069 1.3416544 0.25550556 0.6838254 1.409251 -0.50832975 -0.25629514 0.8974314 -1.6187615 0.11531421 -0.9256816 -0.079940535 -0.524084 0.9186664 0.5482376 -1.5268893 -1.0044268 0.67544836 -0.03257433 -0.30030525 0.29463035 1.1095833 0.20127876 -0.10810921 -0.26760215 -0.23260048 0.27848706 -1.4742066 -0.27525714 0.573735 -0.71807444 2.148705 -0.09482209 -0.4584194 -0.0054610027 -0.33393028 0.19059423 -1.183825 1.1449014 -0.15251881
39890 0.36535636 -0.83981556 1.4023747 0.14165346 -0.6855175 0.17441556 -1.1455665 -0.061664835 -0.0848568 -1.124861 -0.35577828 -0.9118037 -0.77033174 -0.006856998 0.95825994 1.3115884 -0.39288566 -0.5713938 0.42447326 0.8916724 0.52908 1.0995103 0.72964245 -0.233151 0.7363158 -0.4643456 -0.849549 0.45807597 1.5704798 -1.277422 -0.35338476 0.8819172 0.68045974 -0.71834856 0.03651673 -0.5960187 -0.931078 0.46053213 0.66754854 0.42366347 0.06537572 0.16558948 0.6141444 -0.35852554 0.17117278 0.48183152 0.47018763 0.8584968 0.24595968 0.45739844 0.92535245 -0.8790061 -0.091400646 0.7093235 0.013902476 0.6162563 -0.7178976 -0.69991916 0.059656084 -0.5890491 -0.027607927 -0.7349031 0.8859568 -0.24694248
27535 0.21064577 -0.7984918 1.0673448 0.95658654 -0.6656812 0.37156126 -0.45257133 -0.56466186 -0.10898387 -1.075775 -0.6827889 -1.1628963 0.23207884 -0.13807505 -0.80021507 0.9911078 0.23397814 -1.594522 -0.5185151 -0.22038656 0.9045989 0.65942067 -0.008567768 -0.037260473 -0.09321463 1.1862174 0.07378867 -0.9878565 0.9266487 -0.6181139 -0.28515783 0.09281887 0.5038726 -0.3468584 -0.6953952 -0.21205616 0.336058 0.7553336 -1.1686902 -0.067285866 -0.33837757 -1.0340234 0.62015676 0.37742934 0.106072076 -0.025297564 -0.42766407 -0.47745696 -0.237242 -0.8591689 0.54991525 -0.29121295 0.07975813 0.5369546 -0.66982025 0.011270645 0.32267016 -0.35577962 -1.7853163 0.15260702 -0.052132588 -0.48554093 -0.2708032 0.18727256
853114 0.4163432 -1.328596 0.41121748 -0.61712855 0.25917816 -0.9229424 0.19676434 -1.3505034 -0.521755 -0.3853839 -0.19450884 -0.7206922 -0.63641524 -0.8917293 0.79398024 1.2127181 0.32901874 -0.8670682 -0.0073935483 -0.124023564 -0.47663495 0.19411236 -0.1663674 -1.1149073 0.21414895 0.74037236 -0.6394619 -1.3120706 0.76433486 -0.713662 -0.2291305 -0.42535955 0.038293496 1.4987801 -0.048929196 -0.3764206 0.025785655 0.49076763 -0.15837327 -0.09883742 -0.013261722 -0.7545722 0.5231191 1.1873747 0.28181675 0.2187407 -0.385479 -0.17494076 -0.16615884 -0.5907406 0.9448322 -1.789822 0.21556048 0.18523751 -1.3473146 0.07481996 0.5899963 -0.92744917 -1.2712436 -0.051159225 -0.28088033 0.28254703 0.72151196 0.37790993
40135 0.7989195 -0.8705815 1.430615 0.30660897 -0.7194074 -0.43322608 0.1463964 -0.31612903 -0.34108382 -0.7659324 -0.03244939 -1.5608196 0.08188061 -0.5724569 -0.8432139 0.72842187 -0.011739585 -1.786748 -1.2276217 0.07801809 0.9221942 0.922638 0.5540892 -0.1842959 -0.0026830859 1.060221 0.01864877 -1.2290537 1.0988894 -0.54115033 -0.36343458 0.085983045 -0.08979489 -0.20798 -0.77092063 0.008366037 0.8740352 0.6805988 -0.5739604 -0.11529229 -0.1386158 -1.1956649 0.52748996 0.6497378 0.10586012 -0.4310044 -0.7974563 -0.71805125 -0.048589986 -0.62421554 0.85213697 -0.42911774 0.07620577 0.8710428 -0.8031332 -0.05869226 0.49066317 -0.5025098 -1.4237099 0.5522538 -0.036532722 -0.19925512 0.020865088 -0.049822416
267824 0.17647362 -1.1362017 0.6702847 -0.5014913 -0.2921283 -1.6297642 0.49641082 -0.6881958 0.12990929 0.18084356 0.051778384 -0.22697386 -0.5807381 -1.194083 0.80803347 2.3669798 0.8210797 0.47397718 0.70887816 1.5126255 0.083556876 0.016050812 -0.00625334 -0.26768443 0.48140094 1.3772842 -0.6110584 -0.57582027 -0.39215773 -0.15899324 -0.41405863 -0.44648978 0.031513333 -0.3764078 -0.32873276 -0.39842242 0.30059406 -0.4330628 0.07000096 -1.2538798 0.2171257 1.2574846 0.37300667 -1.0416859 0.9488864 0.16792242 0.1834768 -1.2716348 -0.42837262 -0.9117372 0.66281533 -1.0981807 0.8228307 -0.0799836 -0.4074583 -0.20315701 0.20623036 0.08661602 -1.7201439 0.2729902 -0.4049511 0.23450771 0.30438054 0.5487002
504 0.35631502 -0.43805036 0.59485424 -0.31247687 0.053647287 -1.5401703 0.46993667 -0.14450257 -0.3977467 -0.570945 -0.8708632 -0.55570596 -0.2944762 0.7641279 0.70420843 2.4742374 0.11117025 -0.5073333 -0.31577328 1.4797794 1.1046975 -0.5139778 0.82125175 -0.63117987 0.8376129 -0.2133872 0.5551534 -0.5254306 0.9192118 -0.7427752 -0.14043485 -0.13861878 0.24928322 -1.1217152 -0.37681925 -0.116220556 -1.2189852 1.2914284 -0.78552103 -1.5284116 -0.34432617 1.7443541 0.93025196 -0.48339948 0.48084316 0.17704223 0.04763153 -0.25961527 -0.41500717 -0.72560984 0.71613795 -1.3023685 0.33961958 0.33987537 0.20466295 0.30620682 -1.7535055 -0.36075288 -0.5001153 -0.36802882 -0.6054122 -0.39161777 0.3154289 -0.0138938045
69198 -0.014786438 -1.3082372 0.53180856 -0.2284753 -0.083509766 -1.2798593 0.22985218 -0.8897396 0.11916777 0.040334813 0.030511882 -0.1428697 -0.72739387 -1.3111968 0.6510657 2.1262884 0.93187195 0.5410116 0.80823153 1.3289136 0.2843921 -0.077816576 0.033271898 -0.5223868 0.6274241 1.3242764 -0.5691275 -0.65648353 -0.60693216 0.034305613 -0.26061803 -0.56605345 0.1182704 -0.12338192 -0.5817103 -0.69103837 0.26209795 -0.47278434 0.052982036 -0.9439378 0.17783466 1.2175146 0.47903037 -1.1108721 0.76807004 0.117434785 0.15188108 -0.8984209 -0.1330142 -1.07537 0.49693388 -1.3515749 0.682479 -0.09217859 -0.6036202 -0.025166707 0.42239723 0.12400654 -1.3261871 0.30530694 -0.09279731 0.3142731 0.27865314 0.62028354
3231 1.2915415 0.5961607 1.0194471 0.039648447 -0.25402114 -1.2366406 0.24297826 -0.17124803 -1.0482295 -0.13962391 0.0010719043 -0.20222248 -0.19929513 0.77568835 -0.21514161 0.6604291 -0.12945728 -0.88970494 0.13001564 0.58572567 -0.062751584 1.4047002 0.4524375 -0.6568165 0.47084352 1.0254617 -0.29389003 0.16083515 0.07886775 -0.74906325 0.30489692 -0.035663996 -0.23158833 -0.095384054 -1.2008916 -0.15754421 0.5523627 -0.022135464 0.26553956 -0.33564323 -0.40028873 -1.1639516 -0.22455226 -0.027234552 0.37945014 -0.1665045 -0.6565682 0.0976429 -0.090872414 1.3281387 1.048778 -0.27880526 -0.38476735 -0.15813851 -0.24384528 0.08199857 0.16193733 0.005669069 -0.62096804 -0.74789214 -0.70607847 -0.17996627 -0.32004064 -0.22546655
38722 0.0021460748 -0.50991553 0.13826957 -0.46772304 -0.16023399 -0.59160626 0.17489688 -0.34444335 -0.9747977 -0.68330467 -0.05428299 -0.9000931 -0.05534347 -0.92507654 -0.3877375 0.27356508 -0.13625334 -0.96759325 0.28159252 0.88487315 -0.014837695 0.55638355 0.54905194 0.25730738 1.5818197 0.473598 -0.420611 -0.09336109 0.58990335 -0.9332849 0.16034324 0.17829256 0.848743 -0.38144287 -0.26296067 -0.020172672 -0.55320275 0.22761442 -0.7794842 -1.019009 -0.1036513 -0.7029667 -0.5064511 -0.34528166 0.4655474 0.7422191 0.01145914 -0.21271825 -0.22988239 0.37890488 0.7177943 0.60187113 0.6903056 0.4291436 -0.27591056 -0.45736846 0.45453525 -0.8997606 -1.2192401 0.9553868 -0.8049978 -0.6984738 -0.36038685 -1.1708837
3085 -0.63214296 0.61431223 -0.19202998 0.5333525 -0.24772681 -0.21515633 0.28512257 -0.3561928 -1.4043117 -0.65542287 -0.13387984 -0.85776216 -0.01419428 -0.37464663 -0.31919086 0.0129585415 -0.69925106 -1.5401196 0.92021585 0.61266714 1.0504707 1.1053984 0.10786282 -1.0499095 -0.0033364529 0.96189266 -1.1301469 -0.7264905 -0.504504 -0.9352676 -0.0030501126 0.08879536 0.030213935 -0.63077575 -0.10655674 -0.008279881 -1.4516355 -0.11048128 -0.9774214 0.43796274 -0.4976325 0.27511132 0.30756307 0.44167706 0.22003672 0.74613523 0.07701818 0.17628972 -0.7460461 -0.2377069 0.21015061 -0.55472916 0.532286 0.53621256 0.012881803 -1.6017339 -1.7065617 -0.7214612 -0.80522764 -0.99102676 0.3636548 -0.43159798 -0.014528933 0.029006172
16008 0.661749 -1.4083707 1.1826568 0.6898951 -1.3615913 -0.4703887 -0.69624317 0.7270412 -0.17910594 -1.5656867 -0.5197846 -0.76273966 -0.78210765 0.027422054 0.7557473 1.6425891 -0.3916401 -0.03967624 0.034771517 0.9779816 0.9174642 0.27837056 0.6646084 -0.7359993 0.47283304 -0.380312 -0.8173602 -0.012481204 1.3122888 -0.7129938 -0.4848852 0.6948944 0.060365412 -1.0925122 0.3040255 0.026709406 -0.38337186 -0.06797588 0.513542 0.3567451 -0.24302882 0.8655323 0.2880436 -0.21690889 -0.010187329 0.14306499 0.24928756 0.30325112 -0.08375922 0.03865341 1.1824808 -0.38834208 -0.25983325 0.58289194 -0.10011969 0.41977003 -0.72666436 -0.3218252 -0.23016872 -0.5269539 -0.3475902 -0.6114776 1.0436615 -0.32799816
7537 -0.33006144 0.34188473 1.2427403 -0.9103271 0.13523106 -0.5477132 0.7647838 -0.32135144 -0.6081184 0.2666648 -0.2653652 -0.2793991 -0.4874683 -0.37112036 0.70206374 1.7379096 -0.43067914 -0.96156126 -0.2925634 1.3336993 0.39813137 -0.45043567 0.32206103 -0.55250096 0.7405547 1.405292 0.18878722 0.5466333 1.2271231 -0.45198587 -0.2884591 0.8871048 -1.6708044 0.13228558 -0.8470075 -0.2541851 -0.3770276 1.0700505 0.53016406 -1.5494838 -0.93816465 0.8746889 -0.047974996 -0.19462727 0.26118675 0.9993338 0.37368876 -0.039604597 -0.35932687 -0.21618265 0.35940418 -1.5071411 -0.24882056 0.3707836 -0.5860102 2.078266 -0.15948729 -0.36378664 -0.077492 -0.20211053 0.037987996 -1.0898976 0.98249036 -0.032892067
32276 0.06915672 -0.6285668 0.7519986 0.015866686 -1.0229932 -1.3951688 -0.1262982 0.28839663 -1.830622 0.8084103 0.55069464 -0.06476677 -0.4008771 -0.49632064 0.2542854 0.4074622 -0.028763814 -0.12481904 -0.41255057 0.8092414 0.91726846 0.092718825 0.18067752 0.24447569 2.0441027 0.9947182 -0.25284666 -0.06206971 -0.5680822 -0.93243843 0.2686673 -0.54176474 0.35810044 0.7348362 -1.4594806 0.015063501 1.1158612 0.0637806 0.5000861 -0.118745096 -0.13595353 0.1566707 -0.8176494 -0.74488765 -0.4241493 0.4246991 0.27716148 -0.4849458 0.08072121 -1.1362011 1.0592036 0.16698 0.15052503 0.5071504 0.08715011 0.6082449 -0.38718 0.118758745 -0.14588423 -0.73793596 0.089816265 -0.455295 1.0447875 -0.16986208
35778 -0.29728472 -0.2954617 0.98128146 -0.069368206 -0.6643399 0.38165414 0.12328784 -0.9534851 0.24898148 -0.42261922 -0.73809695 -0.71904063 -0.24598838 0.02773621 -0.52168864 0.6788356 -0.1253496 -1.4749638 -0.55852014 0.08139908 0.3080672 0.08574841 1.9853636 -0.047794305 0.3092461 0.487054 0.3197989 -0.94953537 1.0509722 -1.1365205 0.1021894 -0.5711543 -0.39247012 0.46517536 -0.6965597 -0.6005742 0.5182813 1.2248806 -0.70930713 -0.9637274 0.35778207 0.08799047 0.4095016 0.2937975 -0.4341264 -0.6733538 -0.059571885 -0.38417435 -0.8854529 -0.71387947 0.95986664 -0.11305402 -0.840875 0.815319 0.5709524 -0.5119954 -0.49157387 -1.5422308 -0.5280768 0.118557714 -0.087452516 -0.4518334 0.8557907 0.017960124
22229 0.3560322 -1.0182415 1.947433 0.5042861 -0.39102334 -0.46742997 -1.1831746 0.15105943 -0.9253717 -0.6424377 -0.21583147 -0.5288402 -0.5230562 -0.22604834 -0.5148007 -0.13169087 -0.23854728 -1.2315408 -0.13545464 1.3166152 0.88918847 -1.3475949 0.43052593 -1.4330546 -0.1266862 0.5240203 -0.39308983 -0.26813963 -0.29297742 -0.6480228 -0.20751832 0.5444254 -1.32444 0.31026575 0.18639114 -0.4471329 -1.3282001 -0.48357525 -0.18000107 0.7190555 -0.38586932 0.62577647 0.6726287 0.3419368 0.25717452 -0.15016341 -0.23912817 0.6857232 0.41951138 0.0045277835 1.2028762 -0.83040404 -1.1622714 0.6574926 -0.4666704 -0.4454484 -1.1880804 0.3181035 0.17471363 0.81469923 -0.7802786 0.24582781 1.2581997 0.13808809
644427 0.2220994 -0.38103148 1.2179428 0.42418268 -0.13205099 -0.7947492 -0.66893613 -0.7662015 -2.1807375 -0.30105802 -0.63497347 -0.9795767 0.42638376 0.13551295 -0.07556517 0.14121215 -0.69888324 -1.6189904 0.5717497 -0.50041676 0.9567602 -0.8742797 0.9567485 -0.9046572 0.9886697 0.45502 -0.014801362 -0.29725662 -0.91515774 -1.029269 0.33926314 0.0050026183 -1.4755316 -0.3382622 -0.47678554 -0.8738041 -0.15557955 1.3125818 -0.6056864 0.037753984 -0.21570683 -0.4169981 -0.3362447 -1.5189912 0.4207378 0.8159918 0.76481295 0.065323636 -0.020998972 0.10786807 0.6050907 0.10108645 -1.2237566 1.4876478 0.33203235 0.8173789 -0.8339133 0.10832171 -0.87049305 0.93722695 0.2625688 -0.1989576 0.6851296 -0.031950906
8594 -0.7428976 -1.4288894 -0.46673626 0.392999 -0.57166284 -0.2796986 -0.80090714 -0.76805586 -0.33947715 -1.1314108 0.35850325 0.66255546 0.5715496 -0.81277716 -0.32972074 0.22916226 0.56813747 -0.44688323 0.9020315 0.13847186 0.084446296 -0.3352003 0.36770594 -1.2957199 1.0326427 -0.5352704 -0.2644789 -0.7353165 0.45228028 0.008603892 0.18298894 -0.20619042 -0.9497712 -0.42921153 0.21620552 -0.8946004 -0.42919996 -0.08005034 0.4132487 -0.34581774 -0.5980608 0.65267587 0.850275 -0.3306427 0.2988212 0.77258337 0.28225046 0.23271285 1.6992122 -0.091193914 1.5088094 -1.2491715 -0.40519926 0.0576032 -0.027554197 -0.6869637 1.1178501 -0.36622342 -0.8089065 0.52816635 0.10282327 -0.124749124 -0.3298304 -0.91930616
117 0.74279255 -0.8858455 0.5872455 -0.79067814 -0.34993723 -0.41160706 -0.11232309 -0.25268856 -0.24392846 0.37778944 0.07824051 -0.21372634 -0.16870409 0.175456 0.02443276 0.99242926 0.13777532 -0.9503549 -0.3059058 0.048750255 0.19418964 -0.1628946 0.21896026 0.08503805 0.46742472 0.3757815 0.13806526 -0.24322803 0.12962711 0.81600165 -0.6725745 0.47477964 -0.6700504 -0.18166515 0.050839353 -0.16060817 0.23065062 -0.29994965 0.39630213 -0.2972465 -0.046204142 -0.05887661 1.0196582 0.80576926 -0.24338572 -0.41558266 0.23020579 -0.7053852 -0.6649283 -0.8560019 0.39095977 -0.4816852 -0.3058511 0.82058483 0.27049404 0.018642865 0.25479686 -0.7926306 -0.5232238 0.04694091 -0.24509825 0.06356678 1.1091421 -0.6932244
1997 0.7254994 -0.37604114 1.1243888 1.4252363 -1.4600008 -0.024318732 0.0011731699 0.084414504 -0.40524915 0.13957982 -0.39147455 -0.19049266 -0.045344904 0.07443479 0.39134586 0.9794114 0.69844794 -0.9584512 -0.15288886 0.12511156 0.16343348 1.1423717 0.40767923 -0.64651585 -0.31720072 0.37458733 -0.062189594 -0.7101653 0.04936502 -0.2144205 -0.42596292 -0.049557827 -1.7758989 -1.0684767 -0.33332828 0.3259386 0.61571735 0.081753604 0.26919445 0.045191314 -0.70077884 0.25205663 0.60102797 0.2243361 0.28890812 0.8632598 -0.32207006 -0.32616007 -0.6640985 -0.12674277 2.1014473 1.1395454 -0.18212987 0.7964811 -0.17251052 1.2576909 1.135962 -0.20570213 -0.2031646 -0.12439743 -0.55192167 -0.38894364 -0.17087111 0.3946404
77829 -0.993954 -0.13216388 0.5341076 0.61967546 -0.81740415 0.25117353 -0.802725 -0.47664753 -1.2510176 -0.10456051 0.3768131 -0.33999848 0.6447865 -0.47009623 -1.4192474 -0.16734225 0.24218164 -2.1625211 0.6701157 0.5007956 0.6902633 -0.66976064 0.9245962 0.12684745 1.3776157 0.11290641 0.11516662 -0.19772579 -0.08378888 -0.98755914 0.6301928 0.1764349 -0.48419642 0.28046605 -0.88518137 -0.61613125 -0.2591943 0.26038888 -1.3866503 0.47714156 -0.62139326 -0.115672424 1.0794047 0.027307602 0.41823053 0.898817 -0.6496837 -0.064050116 0.14740463 0.02479306 1.0768222 0.7037365 -1.1593444 1.3863059 -1.483335 -0.8647582 -0.5880889 0.0036221093 -0.4483198 -0.014416304 -0.2785034 -0.39729995 0.75613 -0.42119578
158614 0.6997117 0.38504192 0.6118929 -0.12615825 -0.29941526 -1.5733538 0.20537557 -0.36741185 -1.4202746 0.09435382 -0.061814945 -0.38288242 -0.33000845 0.2954314 0.040477674 0.371869 0.21286799 -1.2490436 0.34038767 1.1751344 -0.048133075 1.4489799 0.31573695 -0.66133726 0.9337305 1.312731 -0.385561 -0.0013866335 0.6726125 -1.1836416 0.23539682 0.5891775 -0.16663396 -0.43976673 -1.5569347 -0.37506738 0.5628091 -0.043705568 0.22440018 -0.91633564 -0.45965132 -0.6795362 -0.38144565 -0.22831531 0.33178872 -0.2406901 -0.81936646 0.17264648 0.20899785 1.4106553 1.1051041 0.18789382 -0.46120298 -0.24897444 -0.09050455 0.37349734 -0.39930314 -0.21293636 -0.33284402 -0.20404206 -0.51281005 -0.32776347 0.17042078 -1.4062583
83725 0.113823004 -0.41470197 0.5338514 -0.24781807 0.7472708 -0.5068167 -0.9795137 -0.55829376 -0.5750809 0.27006242 -0.46955743 -0.67507833 -0.48547745 0.79109883 -0.2124199 0.46554694 0.55775434 -1.2308064 0.1949854 1.0990176 -0.38662452 -0.26878294 0.643509 -0.9871936 0.26240683 1.5665386 -0.885979 0.1494839 -0.24535711 -0.34349754 0.88481355 0.20451163 -0.52307755 0.48127416 -1.193273 -0.12762038 0.81159204 0.61744386 0.06593637 -0.28711742 -0.3779944 -0.28819332 0.42845708 -0.12151127 0.62032515 -0.94325256 -0.3013054 0.66212654 -0.30137354 -0.1259528 0.86468035 -9.494907e-05 -0.40944263 0.30225196 -0.20542718 0.6695575 -0.89721024 1.039167 -0.44282833 0.989039 -0.5764133 0.3138672 0.5996056 -2.1510506
2354 0.57563674 0.13634126 0.63401186 -0.3381939 -0.16642979 -0.6809304 -0.25383875 -1.0002381 -1.1852015 0.23919478 -0.53785783 -0.571792 0.27623165 -1.4356791 -0.6342043 0.42222026 -0.16387215 -0.63484895 0.44473916 1.3080872 -0.5753704 0.6407692 -0.3098387 -0.9650731 0.1696022 0.5350522 -0.22829671 0.025311666 -0.42916894 -0.4254271 0.5340222 1.031298 -1.7372922 -0.42090946 0.6041212 -0.69887215 0.26057127 0.8008431 -1.7109812 -1.1280692 -0.17907749 -0.3209833 0.7311604 -0.2154988 0.9484465 1.1358256 -0.7932058 -0.6831055 0.41672286 0.4424456 1.1087198 -0.12114195 -0.6947378 0.3166332 0.33932427 0.38681164 0.0073004887 -0.12003114 -0.12372269 0.7752069 0.068229884 -0.26967856 -0.01420306 0.24350844
30817 0.43083265 -0.9733612 0.5991962 -0.52600306 -0.31201002 -1.1552716 0.52447784 -0.015413652 -0.69463205 -0.22882818 0.73332053 -0.07484072 -0.297719 -0.60795057 0.009932243 1.1916564 0.43016404 -0.48070297 0.030953221 0.3108286 0.12633766 -0.6224845 -0.06849725 -0.33055475 0.9088014 0.7972164 -0.17963606 -0.8387488 -0.3368105 0.13098177 -0.24336691 -0.43603387 0.5762823 0.73863506 -0.6130114 0.070855364 0.532094 -0.3432989 -0.41216636 -0.8223514 0.95246553 -0.10189797 0.22748858 -0.14736222 0.8345605 -0.17612763 -0.67911077 -0.91488665 -0.037913874 -1.161134 0.90526325 -0.55583394 -0.4153251 0.6695052 0.27133194 -0.18863288 0.4130507 -0.6726808 -0.2962085 -0.1907898 0.05535076 -0.34286588 0.7305854 0.37084562
230879 -0.09399194 -0.05640207 0.8709905 0.2864018 0.03462359 -0.065935284 0.32312113 -0.38700116 0.6090501 -0.17016682 -0.57626665 -0.23506029 0.26098055 -1.3197908 0.10868877 1.8213122 0.67319787 0.051101096 -0.15218683 1.208599 0.11106045 0.7206638 0.4477658 0.30597973 -0.55058074 0.97729325 0.17106192 -0.5637938 0.13982451 -0.9406302 -0.2429576 0.56517166 -0.7186173 -0.43311813 0.14178981 -0.9138984 0.23073906 0.113052696 0.038691558 -0.456998 -0.42391998 1.0453994 0.6523744 -0.18180373 0.04977572 0.9387008 0.84525985 -0.35014927 0.22017902 -0.5753304 0.6302494 -1.4703779 1.280536 -0.13312708 -0.18128729 -0.38015935 0.6813705 0.21462765 -1.210432 0.38683143 0.15222147 -0.3614158 0.43840045 0.33828756
12182 0.48435867 0.26292786 0.40770295 0.07313448 -0.48900896 0.1643921 0.40553322 0.22919102 -0.96678686 -0.40710303 0.30660784 -1.1511052 -0.029404728 -0.05824405 -0.59996206 0.53831714 -0.4357701 -0.38936317 -0.085752055 0.21359295 -0.302905 0.38111728 0.21639363 0.29181767 1.6147707 -0.12795646 0.21040335 0.7290871 -0.48786312 -0.6597735 -0.0050577396 -0.0978493 0.23816295 -0.79206014 -0.060303073 -0.51036793 -0.4647431 -0.32908654 -0.71956486 -0.5348181 -0.31393316 -0.3026441 -0.10426703 -0.6932158 1.0413076 0.41416666 -0.08313432 0.07108564 -0.45583075 0.17514946 0.89263976 1.0438704 0.33267614 1.2412337 0.42853242 -0.30517516 0.6307438 -1.1284535 -0.9086166 0.20804848 -0.82402027 -0.5566877 -0.009376956 -0.97768587
137790 0.4905661 0.08270243 0.37730545 -0.4538644 -0.15072961 -0.8039021 -0.3215878 -1.2322351 -1.0818568 0.01660227 -0.6609258 -0.47126558 0.47107047 -1.0887159 -0.86830866 0.46119326 0.057120446 -0.9157778 0.7877644 1.145109 -0.53648204 0.6954822 -0.30217594 -1.0502928 0.18319143 0.7838924 -0.22159417 -0.027858013 -0.62683135 -0.105667606 0.09288747 0.80702233 -1.8578479 -0.78143 0.29675597 -1.0336952 0.5657784 0.5235382 -1.3979712 -1.1699283 -0.12131739 -0.13999046 1.0833714 -0.09911258 0.97144634 0.8399022 -0.7703418 -0.92707044 0.6228601 0.41883594 0.89236766 0.36870968 -1.374948 0.36893025 0.45034185 0.28417706 -0.11114875 -0.34851572 -0.21410318 0.6167733 0.25913584 -0.34396696 -0.21882962 -0.22549477
853116 0.39848393 -1.2218093 0.40855905 -0.2999072 0.14216189 -1.0725641 0.1971303 -1.0933559 -0.5046383 -0.3014759 -0.14813693 -0.6680987 -0.37724853 -0.9876884 0.7476845 1.2011788 0.2120965 -1.0010135 0.082279794 -0.07793418 -0.20782226 0.33062956 -0.3320525 -0.97995675 0.0134142535 0.7049728 -0.57919186 -1.3786453 0.8810727 -0.6224256 -0.35593054 -0.39708132 0.12294427 1.379085 -0.1903642 -0.48126185 0.17509799 0.57133764 -0.19174285 -0.18267052 0.0017792427 -0.6858048 0.40890074 1.0817363 0.15156524 0.12132893 -0.4920374 -0.23539685 -0.10115149 -0.42211708 1.0275177 -1.6877378 0.34017777 0.064915866 -1.2101431 0.11070084 0.46724623 -0.7576624 -1.2307141 -0.16063467 -0.3239715 0.2700579 0.77289337 0.12471733
646286 0.4272493 0.24830547 1.6810452 0.13141556 -0.066584885 -0.7055858 -0.7168793 -0.9536091 -0.97017276 0.16001669 0.25205192 -0.20863545 0.9403366 0.047776792 -0.29922467 0.32655418 0.20740186 -0.2254463 0.28877234 -0.65259486 0.6198237 -0.8050134 0.45631978 -0.19709265 0.29603317 0.42009717 -0.20879325 0.10892324 -0.48449486 -1.0363067 -0.099043585 -0.1577008 -0.89521337 -0.59653515 -0.091898136 -1.1860495 0.26270303 1.1610556 -0.2125286 -0.019539276 0.3301859 0.07352895 -0.10888637 -1.6765865 0.8523297 0.30148566 0.010550275 -0.40701187 -0.14702229 0.016425138 0.99737346 -0.71217215 -0.6720207 0.5979322 0.45962492 0.79895914 -0.7777593 0.097386256 -1.3583124 0.47734374 0.13577646 0.39854148 -0.63336915 0.49145022
