34 64
1 0.12907344 -0.14020121 0.1250226 0.11235392 0.011863028 -0.14772934 0.09264088 0.14767092 -0.27620822 0.022983037 0.18842989 -0.15298828 -0.061020255 0.21840692 -0.06920646 0.17706926 -0.019743465 0.0077040815 -0.114442 0.12503979 0.31201786 0.077151656 0.38096923 -0.041584942 0.117963366 0.13455765 -0.28658605 -0.12827845 -0.35111836 -0.21025272 -0.030829675 -0.0010438979 -0.15002793 -0.28056064 0.07274056 0.12547773 0.23775938 0.11965299 0.16724241 -0.006068149 -0.04499638 0.20929046 -0.13361554 -0.28464508 -0.08313365 -0.04846999 0.0015838356 0.036782563 -0.006646306 0.23039286 -0.05828548 0.17136511 0.027744789 0.14152393 0.31222036 0.20356376 0.1979307 -0.1657085 -0.06475375 0.10941134 0.14409497 -0.17393796 -0.11308944 0.10362214
34 -0.13134219 0.18502855 0.17343438 0.110936195 -0.108438596 -0.19258025 0.09519258 0.053387802 -0.038657136 -0.17792651 0.100553125 0.09099599 0.30665642 -0.1260438 0.0778568 -0.07123145 -0.20194058 0.061527565 0.15513058 0.0975459 -0.056155536 0.02150167 0.32986555 -0.18432152 0.074625075 0.16242808 -0.08781815 0.05512249 0.2693247 -0.018665927 -0.17532188 0.1899387 -0.39981017 -0.32959238 0.16343899 0.25607422 -0.0400862 0.42752743 0.22322437 0.0151281925 0.35672158 0.04144453 -0.11698915 -0.21370025 0.12860599 0.08871071 -0.00045379315 -0.30203003 -0.12863687 0.18996195 0.13461155 0.1555146 0.1438986 0.18804383 0.19253144 0.16848111 0.14203316 -0.009552252 0.03756577 -0.22296448 -0.04172716 -0.14757898 -0.0996662 0.023862261
33 -0.09562571 0.12806726 0.18415609 0.040495135 -0.022564536 -0.20570949 0.0817047 0.011966385 -0.051415168 -0.14401922 0.05242334 0.14178655 0.25875697 -0.15944631 0.04767453 -0.02553296 -0.20933896 0.07503618 0.20369503 0.08830751 0.013722867 0.010209327 0.3464089 -0.20048253 0.11726463 0.15935616 -0.08021292 0.07334955 0.34359017 0.031752635 -0.14829785 0.20794244 -0.37583938 -0.2746018 0.1449911 0.20074484 -0.023227941 0.449554 0.28918493 -0.028486563 0.38582113 0.036513 -0.06113623 -0.23469616 0.13763729 0.09504285 0.022952251 -0.36562365 -0.14952044 0.11483184 0.15729755 0.07939297 0.10947514 0.18317795 0.19022378 0.11979759 0.08649813 -0.031724896 0.03980442 -0.31131086 -0.027471287 -0.20862538 -0.07468745 0.024805179
3 -0.028116291 -0.09834966 0.18360558 0.045186162 -0.038220376 -0.22471067 0.044289727 0.09620817 -0.23676635 -0.078195944 0.16862968 -0.009297238 0.17687844 -0.001919433 0.0745503 -0.051510237 -0.0407673 0.03141035 -0.043434635 0.1321163 0.10990701 0.039205275 0.33518723 -0.14903095 0.1862974 0.08159221 -0.29063055 0.013570478 0.017730184 -0.10258137 -0.20114881 0.17456949 -0.18951614 -0.36210802 0.17598757 0.14024195 0.08960368 0.31793496 0.20105587 0.09023815 0.23112614 0.05878901 -0.14355552 -0.18916579 0.07824828 0.10184822 0.1209457 -0.116476715 -0.05204986 0.26586962 -0.008988892 0.26943547 0.043907106 0.091187365 0.1734908 0.22780041 0.12034611 -0.037210494 0.10142592 0.041689992 0.036737982 -0.1137685 -0.15811083 0.11035726
2 0.04119715 -0.26245075 0.16659085 0.007588925 0.01185384 -0.25616997 0.09751908 0.11823061 -0.40596095 0.027673267 0.2435644 -0.062549405 0.007286234 0.08262459 0.096598156 0.0408808 0.077078685 -0.0097778505 -0.16911915 0.19570737 0.26300132 0.07881495 0.36379057 -0.08935432 0.27064762 0.030647773 -0.39220566 0.0036707877 -0.14264783 -0.17635368 -0.1995817 0.144233 -0.08508924 -0.35935324 0.091993615 0.1007444 0.24183361 0.23341575 0.22826381 0.11729965 0.17589672 0.1250667 -0.09942214 -0.2366795 -0.019602105 0.094530046 0.17017652 -0.0052555255 0.02563648 0.25754127 -0.053028043 0.29080912 0.010412955 0.04693753 0.2177305 0.28216362 0.15399498 -0.125089 0.09929239 0.16795501 0.14581941 -0.10855058 -0.19090424 0.22327453
4 0.055369165 -0.2965106 0.22581291 0.021162443 -0.03590837 -0.26413354 0.06844249 0.14210479 -0.4014868 -0.010690742 0.26251176 -0.09822573 0.026941488 0.082511045 0.07169183 0.0015832728 0.1155118 -0.016351916 -0.20276749 0.19820061 0.24948457 0.06959993 0.38196898 -0.10105896 0.27936617 0.031035181 -0.4211253 -0.011100188 -0.19076437 -0.18296142 -0.19168821 0.18149762 -0.09968126 -0.39141202 0.13257587 0.06902014 0.24563798 0.2440921 0.21452065 0.14149196 0.14400515 0.12719595 -0.12819986 -0.20574911 0.03254492 0.06657304 0.20642431 0.04059817 0.0147726415 0.31094602 -0.09392621 0.34005088 -0.03616409 0.06367448 0.19316866 0.28255865 0.15263738 -0.071740024 0.11171115 0.23666935 0.1309945 -0.08161222 -0.17235038 0.2121585
32 -0.201072 0.2789813 0.16984974 0.19092181 -0.14723885 -0.15093379 0.05340754 0.03256188 0.12617739 -0.051362246 0.37541395 0.04124224 0.34442264 -0.122166745 -0.069112636 0.039794635 -0.1530676 0.13214259 0.10363245 0.20328797 -0.20234278 0.07754775 0.13062902 -0.041247565 -0.23136808 0.2262389 -0.14608149 -0.14050935 -0.149346 -0.10538964 -0.1442974 -0.044491068 -0.5360626 -0.2849455 0.21574284 0.2918463 -0.008269381 0.035552945 0.19488873 -0.06383565 0.06836452 0.28303775 -0.16245843 -0.251708 0.15000914 0.036851387 -0.20727637 -0.17511222 -0.011761433 0.17861871 0.3041235 0.11079381 0.12236586 0.079016 0.27123284 0.1999846 0.10498029 -0.008737322 0.0013840679 -0.015690751 -0.063497595 -0.08195272 -0.046363004 0.083050124
14 0.05979489 -0.15018387 0.17434846 0.052199632 0.025134664 -0.22167137 0.04878874 0.07472315 -0.27889347 -0.04497329 0.145003 -0.05845769 0.09440122 0.053172596 0.03318512 0.073951356 -0.06334703 0.02759359 -0.025982827 0.15591022 0.19560988 0.06945124 0.3559186 -0.069866195 0.16848022 0.10790241 -0.26152807 -0.033768058 -0.08615661 -0.10499318 -0.1091566 0.08071621 -0.20586447 -0.3280042 0.13995072 0.10871956 0.14271247 0.22004716 0.23776023 0.07611015 0.13122626 0.10008827 -0.092226915 -0.23457497 0.016071407 0.045701884 0.112031125 -0.11923023 -0.021117022 0.23359148 0.0022903783 0.1980997 0.0113033615 0.11956272 0.21652907 0.2299167 0.11994549 -0.095810734 0.039369047 0.051272754 0.09056113 -0.17613581 -0.1307392 0.12438062
24 -0.26937196 0.31096935 0.1945925 0.12303536 -0.18574359 -0.21320967 0.073766515 -0.00092435925 0.10593863 -0.09918362 0.32662743 0.14913899 0.41834292 -0.23295374 0.06319166 -0.07171869 -0.18190815 0.14251047 0.18107326 0.15692213 -0.27518478 0.032461777 0.16335705 -0.06697539 -0.12279814 0.17621228 -0.06992807 -0.009793447 0.172604 -0.032424532 -0.25977525 0.061585553 -0.55827963 -0.33453247 0.19292437 0.2926314 -0.08422885 0.20890655 0.25340334 -0.048745885 0.2802495 0.2201891 -0.16511567 -0.26500735 0.2234867 0.10815341 -0.14883311 -0.2980134 -0.027039059 0.17097323 0.341075 0.09801358 0.13531137 0.091744386 0.23788205 0.22362202 0.07110028 0.010257655 0.067888424 -0.09748585 -0.09511577 -0.048420243 -0.0720525 0.08922578
9 -0.0705235 0.08994529 0.15461302 0.105315514 -0.03855971 -0.19217601 0.10512524 0.041743565 -0.10900608 -0.11645477 0.10349048 0.052357763 0.19262265 -0.041365456 0.07477312 0.026591824 -0.17102176 0.045007966 0.11724922 0.103407994 0.04551218 0.02918787 0.32113504 -0.14437078 0.10663136 0.13617696 -0.12224446 0.021968145 0.13084908 -0.050304286 -0.12649205 0.12200621 -0.31679544 -0.2953847 0.12763378 0.20302628 0.037429694 0.34689426 0.2006688 -0.0065510427 0.27143356 0.09670428 -0.09721603 -0.24975905 0.06689012 0.060453743 0.016496453 -0.22146046 -0.07971978 0.17110176 0.10227744 0.10460046 0.097305395 0.16120994 0.231686 0.17626253 0.12737767 -0.06445676 -0.012233787 -0.1366764 0.0033933436 -0.17712069 -0.108350314 0.027475495
8 0.07583364 -0.24448597 0.20420758 0.00803137 -0.0023131876 -0.2521501 0.046856716 0.10679094 -0.38204283 -0.04770099 0.17996839 -0.1017803 0.07518436 0.07675444 0.060564008 -0.026802931 0.016819421 -0.00024168503 -0.12834033 0.13726322 0.22536822 0.06135002 0.40426862 -0.094817586 0.24964848 0.059642613 -0.37603244 0.0039305356 -0.10382191 -0.14320688 -0.18671684 0.19999267 -0.12880255 -0.3649435 0.14316647 0.07587003 0.21827437 0.2892862 0.20577352 0.1583822 0.18987794 0.062212583 -0.1478708 -0.20697252 0.016459081 0.076058805 0.20467976 -0.06192181 -0.016610123 0.3240557 -0.10415907 0.3210266 -0.020428533 0.091041796 0.1939133 0.28983936 0.18248935 -0.095676005 0.082686536 0.16488378 0.13741305 -0.1278464 -0.16479392 0.19058989
28 -0.21791753 0.24010499 0.16905367 0.12787867 -0.18365918 -0.18875273 0.06642331 0.04433336 0.061793774 -0.04852596 0.34842286 0.040718466 0.3588408 -0.1547313 -0.018766629 -0.048277847 -0.089603215 0.12903827 0.07810981 0.17874104 -0.23921129 0.08989934 0.12630126 -0.031072665 -0.1771848 0.18780652 -0.17969808 -0.068043545 -0.061083153 -0.106509574 -0.21050042 0.040197007 -0.5190413 -0.3153682 0.17273054 0.28997308 0.03105684 0.100788765 0.1881561 -0.017632023 0.14995612 0.21473487 -0.17647557 -0.23008265 0.2002339 0.0980392 -0.16177952 -0.17856294 0.017353646 0.21462476 0.23471516 0.21638946 0.08794083 0.07144662 0.23591962 0.23331961 0.12549101 0.02444969 0.053753607 0.031039597 -0.056811772 -0.015829062 -0.0871952 0.15719834
6 0.2960733 -0.17867254 0.10896153 0.18027097 0.19333225 -0.035223752 0.08441287 0.17364338 -0.23203436 0.07807558 0.11229949 -0.27118814 -0.25775084 0.39514908 -0.34829134 0.5261698 -0.120417036 -0.0053170016 -0.06159714 0.1747752 0.57859427 0.09989194 0.56401783 -0.061169036 0.022840006 0.3834346 -0.2674898 -0.3642169 -0.7109632 -0.34370568 0.25786823 -0.19705811 -0.30247727 -0.23350064 0.06513808 0.22518437 0.31228593 0.04112831 0.22573584 -0.22192946 -0.27168858 0.35542655 -0.13629197 -0.4243228 -0.13932773 -0.19210103 -0.12354678 0.017758852 -0.092534445 0.1278395 -0.059172798 0.03266788 0.06316133 0.31559902 0.48264804 0.10275997 0.183014 -0.2721151 -0.23344263 -0.07681116 0.2230711 -0.34912208 0.004997055 0.12385246
7 0.28244022 -0.049963936 0.10474639 0.21507524 0.16935267 -0.011675098 0.07404883 0.14546232 -0.14938645 0.050359022 0.053017452 -0.20773594 -0.15579444 0.3626794 -0.3306123 0.50397086 -0.22714613 0.041318722 0.0173204 0.12912165 0.4889266 0.07297967 0.5432548 -0.078242674 -0.02294214 0.40318188 -0.16848125 -0.37908518 -0.60552824 -0.30505618 0.27998364 -0.22709 -0.369781 -0.24324118 0.08797734 0.24633613 0.18917371 0.059907455 0.19620162 -0.20930862 -0.21680632 0.33489433 -0.15511687 -0.40266854 -0.1522262 -0.19704756 -0.20098615 -0.090745285 -0.117310874 0.095729396 0.03360083 -0.01287106 0.110234104 0.33453923 0.46261573 0.09476925 0.14424437 -0.24984199 -0.25790033 -0.13723196 0.19042492 -0.36954087 0.018350245 0.08544385
31 -0.079513386 0.05550305 0.16272503 0.059650578 -0.06064411 -0.21042728 0.07816769 0.058247846 -0.15380973 -0.101052895 0.11472703 0.07077395 0.21011765 -0.09932967 0.11058608 -0.024656782 -0.12061375 0.03453651 0.059289288 0.13178559 0.02874652 0.030994678 0.31235963 -0.14707345 0.13577405 0.120541885 -0.16409573 0.050730404 0.19249666 -0.04753958 -0.20053618 0.1787632 -0.29539222 -0.3257668 0.1452687 0.19724926 0.05505968 0.36700457 0.21742105 0.048016366 0.29993135 0.059743125 -0.075841114 -0.19948114 0.09292714 0.11300134 0.055507906 -0.22287303 -0.07564124 0.18285954 0.10367585 0.16571625 0.10130854 0.13607666 0.17321457 0.20303907 0.1295896 -0.02350572 0.054182522 -0.12052316 -0.005207059 -0.14659046 -0.113299176 0.076977596
30 -0.2374241 0.34219542 0.20006905 0.12272658 -0.18396877 -0.21256988 0.088589944 -0.0107031185 0.08377459 -0.17032179 0.20548917 0.14622922 0.3914874 -0.23839816 0.10777736 -0.074386105 -0.21807705 0.07552482 0.20902815 0.13441731 -0.18522686 0.036392782 0.2407594 -0.11287218 -0.041971542 0.16292974 -0.057258714 0.058074187 0.31325436 0.015019837 -0.28449866 0.1461907 -0.5240783 -0.32751957 0.1851238 0.29218274 -0.095339045 0.38181204 0.2907072 -0.030296577 0.36426583 0.12125452 -0.09748208 -0.29252398 0.18113074 0.11526427 -0.10532504 -0.31773537 -0.09343222 0.11979869 0.27815711 0.097978316 0.18131986 0.14285296 0.23880632 0.20701623 0.13883686 0.022468807 0.047067713 -0.25613117 -0.12575969 -0.10749696 -0.06150047 0.019620985
25 -0.32358754 0.41110888 0.17426805 0.21545798 -0.23528522 -0.14558288 0.08570004 0.027097443 0.2242401 -0.031986266 0.5247581 0.079222865 0.45139238 -0.19983992 -0.03651467 -0.011223801 -0.11678184 0.14154403 0.09127391 0.24854124 -0.39291817 0.07668816 0.034593027 -0.012443426 -0.33705896 0.204779 -0.14637828 -0.13425793 -0.1586951 -0.11019636 -0.23022974 -0.04028001 -0.63518333 -0.337641 0.22293039 0.34997776 -0.037876897 -0.01843371 0.17865945 -0.07725454 0.06752519 0.36026618 -0.21671137 -0.29640827 0.23000437 0.06319126 -0.28253922 -0.13782112 0.03349956 0.23823237 0.39104185 0.16473217 0.13865337 0.0014162456 0.27816018 0.25421774 0.14218235 0.047998555 0.056736425 0.05887375 -0.14274186 0.025471315 -0.06964234 0.11418214
29 -0.096018955 0.09059039 0.21993741 0.10377633 -0.097786255 -0.19221124 0.060264166 0.047737885 -0.038424913 -0.100156374 0.24269667 0.024393322 0.28346822 -0.08053474 0.042663276 0.002753546 -0.093470015 0.045016732 0.05101457 0.16279353 -0.049664132 0.04698721 0.26937482 -0.09593433 0.030591752 0.1167935 -0.15486419 -0.014603953 0.031772193 -0.083576255 -0.18667416 0.08610235 -0.36446333 -0.3419352 0.1616522 0.16786334 0.018907996 0.20783256 0.20618993 0.032495264 0.21646895 0.14388701 -0.13393822 -0.24717216 0.13634548 0.095996834 0.010780467 -0.16690738 -0.039150212 0.20605654 0.12047547 0.15908808 0.029557247 0.09319167 0.20776084 0.2182428 0.09916974 -0.019445438 0.080962904 -0.02425741 -0.01726431 -0.0682244 -0.0781337 0.086878344
5 0.31608588 -0.19202898 0.11115206 0.1486402 0.16940767 -0.07380409 0.057291795 0.1573783 -0.26260674 0.047231536 0.08421093 -0.23916478 -0.19815017 0.39420936 -0.2531325 0.44256476 -0.15032965 0.024939252 -0.06980599 0.146256 0.55018353 0.08653475 0.55427986 -0.05255722 0.0774541 0.31454942 -0.26894736 -0.31674892 -0.5782848 -0.26915532 0.17542985 -0.15139093 -0.21637583 -0.2617562 0.0720132 0.14520466 0.27779254 0.09214009 0.22381228 -0.12752572 -0.21025331 0.29238793 -0.1331549 -0.38910383 -0.17131701 -0.16637293 -0.0816219 -0.032818306 -0.08407334 0.15742406 -0.056123808 0.044248205 0.051400866 0.28665063 0.42521524 0.16940497 0.18573686 -0.27188417 -0.2052475 -0.030281818 0.20343263 -0.34151068 -0.051612232 0.08063685
11 0.34242287 -0.2087504 0.11126077 0.13553922 0.2288485 -0.06593669 0.041341655 0.16999106 -0.27920267 0.06729785 -0.027739896 -0.19152462 -0.21032459 0.40237504 -0.3128029 0.47149962 -0.19211517 0.042093236 -0.029145747 0.09360283 0.59409755 0.037914183 0.6072426 -0.09137877 0.11078976 0.35527793 -0.25000408 -0.34218058 -0.5531633 -0.2934781 0.26482198 -0.15485688 -0.24862967 -0.232127 0.116399616 0.1553562 0.23548357 0.115824424 0.2470128 -0.15193309 -0.17795336 0.26693675 -0.107805185 -0.35381538 -0.2046904 -0.19431983 -0.062414613 -0.09210761 -0.13361855 0.13004851 -0.036405083 0.010618457 0.072665185 0.31731448 0.43439978 0.14301927 0.14493513 -0.28419164 -0.22255152 -0.113781035 0.24362247 -0.42236212 -0.038548045 0.09219485
26 -0.36628962 0.44986832 0.17809959 0.2287478 -0.2851627 -0.17294618 0.08638669 0.012445098 0.23174703 -0.051007878 0.5291359 0.07012125 0.51054186 -0.24724875 -0.055915404 -0.054414168 -0.09153668 0.18543722 0.13939671 0.25634673 -0.4624007 0.09914313 0.012343082 -0.0060938895 -0.37677708 0.20142052 -0.1674072 -0.15728322 -0.151717 -0.1179881 -0.25820103 -0.015750468 -0.71338946 -0.346928 0.26176527 0.3850519 -0.035655018 -0.014115409 0.18981668 -0.08572787 0.10029035 0.35707974 -0.2148758 -0.2650397 0.28438228 0.095690876 -0.32683164 -0.1943546 0.03747877 0.26635414 0.3988441 0.20888445 0.15243688 0.0061463933 0.3009939 0.24633066 0.101103626 0.0884524 0.07431017 0.049376562 -0.149073 0.030628972 -0.04491879 0.14384978
20 0.033825263 -0.111039996 0.16166502 0.058017362 0.0009999909 -0.19941999 0.06643013 0.09466325 -0.24471207 -0.03803073 0.16253157 -0.055808246 0.08914133 0.047607012 -0.002733585 0.06895103 -0.027246991 0.027241075 -0.037649214 0.1518466 0.19713585 0.05223919 0.3827843 -0.07905774 0.15718597 0.10969578 -0.26734176 -0.040383585 -0.12234067 -0.12801318 -0.10424793 0.13588367 -0.21427722 -0.2934768 0.12029494 0.12286968 0.15708454 0.22396977 0.22552824 0.052934602 0.13888049 0.13424723 -0.10616355 -0.22891779 0.01866475 0.031210588 0.09332286 -0.064722225 -0.038649857 0.22621016 -0.02878793 0.19820742 0.0441818 0.115192525 0.214578 0.23640312 0.16221815 -0.07335338 0.030460726 0.0143516045 0.10322237 -0.13456978 -0.09129455 0.14697434
13 0.079094164 -0.22722635 0.1921783 0.013794914 -0.022037253 -0.26126307 0.043864463 0.13693202 -0.3324156 -0.014354106 0.24874479 -0.10377026 0.061101533 0.10472894 0.020068401 0.021332737 0.02351918 0.033909377 -0.11960839 0.16697356 0.2501342 0.056646165 0.36236033 -0.06031833 0.1926737 0.05694629 -0.38432705 -0.057661712 -0.18115106 -0.14662653 -0.16450967 0.1467655 -0.13113944 -0.3432956 0.14610484 0.09674442 0.2254118 0.21042305 0.21975163 0.1071095 0.10111895 0.15041594 -0.13455763 -0.23620155 0.006029187 0.028908132 0.12409854 -0.023432717 0.019024992 0.31360835 -0.06439061 0.29131374 -0.0077326824 0.07297733 0.24154477 0.29769084 0.18141995 -0.09846668 0.070525326 0.16269127 0.13620795 -0.12637767 -0.16138826 0.16359901
22 0.08927285 -0.18746375 0.1447445 0.039779555 0.03084507 -0.1797627 0.06911478 0.13797922 -0.3191072 0.025976216 0.20640188 -0.13333422 0.0051559317 0.11756077 -0.040568963 0.105470195 0.03233435 -0.0037830314 -0.11313484 0.16099802 0.26505184 0.07996494 0.3810878 -0.07169587 0.14803228 0.13739762 -0.3599268 -0.073812276 -0.2919014 -0.18877114 -0.0783411 0.12186553 -0.18418056 -0.30069727 0.10007905 0.1289674 0.23331387 0.18007068 0.19324693 0.026643025 0.038782313 0.17423742 -0.13327855 -0.23956782 -0.027740605 0.017188678 0.08636787 0.02011085 -0.021941347 0.26565802 -0.07374277 0.23975287 0.011194876 0.10401651 0.23886159 0.24871401 0.18159051 -0.12367587 0.007837359 0.099996686 0.14942876 -0.11453476 -0.117215075 0.20655885
18 0.112830766 -0.23806061 0.15455851 0.055158645 0.058857094 -0.21647437 0.05019034 0.14178668 -0.33866504 0.04069153 0.19414155 -0.12377456 -0.00029869503 0.11589213 -0.05201259 0.10571888 0.025385164 0.036687654 -0.12098957 0.1766874 0.30076313 0.06322457 0.41679302 -0.06013492 0.17821994 0.12749086 -0.37757394 -0.09998959 -0.26746014 -0.20700943 -0.07924187 0.10822612 -0.16828188 -0.3049845 0.11566119 0.11587796 0.24902378 0.1668829 0.23213457 0.0652598 0.061431322 0.17129594 -0.12883581 -0.25461856 -0.043029808 0.0038003721 0.098765664 -0.015426472 -0.02321778 0.27439347 -0.055657294 0.22776844 0.022829562 0.12306281 0.25427034 0.2595984 0.15446134 -0.15364115 0.010636639 0.1326065 0.17679736 -0.15346867 -0.12266962 0.21331157
17 0.41096702 -0.18780819 0.10624787 0.19565734 0.31500417 0.0022015423 0.06686006 0.17256017 -0.21818824 0.047125295 -0.08815359 -0.25017253 -0.29616898 0.47321266 -0.4026414 0.6461329 -0.3048537 0.015020962 0.029079009 0.07828173 0.72404605 0.08497679 0.6940788 -0.11477019 0.083263844 0.48355597 -0.15183184 -0.41514495 -0.62190235 -0.31164578 0.38075963 -0.24253035 -0.30039802 -0.23499875 0.0599305 0.22666481 0.25115398 0.13479894 0.23869543 -0.28930402 -0.22944878 0.294362 -0.1287726 -0.43485034 -0.20869349 -0.2399625 -0.16838828 -0.14538503 -0.16017523 0.044664588 -0.036300912 -0.112361014 0.10369503 0.42647457 0.50315875 0.05688265 0.13303025 -0.36367255 -0.3447434 -0.2650411 0.2528945 -0.48183972 0.024717871 0.06431955
23 -0.17627102 0.2252393 0.13458678 0.13465169 -0.090466246 -0.18522693 0.119833246 0.022851614 -0.009605396 -0.12350336 0.15093154 0.101420216 0.31758845 -0.1730588 0.12922443 -0.023357907 -0.19912277 0.049703117 0.14680469 0.11159694 -0.09821959 0.05264031 0.24129598 -0.1454821 0.019474419 0.147075 -0.0700898 0.05942536 0.27285102 0.001226975 -0.23365843 0.1329494 -0.43071526 -0.316001 0.13851516 0.2809374 -0.020661168 0.3809285 0.2671844 -0.04614892 0.33671474 0.09013126 -0.061677773 -0.25232965 0.121872626 0.10192945 -0.057390425 -0.29793802 -0.07327583 0.12240187 0.23916875 0.071122535 0.16614307 0.13668978 0.23224442 0.15732063 0.14101627 -0.026508844 0.004722446 -0.22723739 -0.0830319 -0.16136186 -0.106673606 0.008261494
10 -0.09737226 0.030660292 0.19911449 0.05600693 -0.11119934 -0.2462521 0.094890386 0.06578993 -0.18214864 -0.103648275 0.17214803 0.0537496 0.25419274 -0.12978509 0.15104814 -0.05940167 -0.08067799 0.017974779 0.040141385 0.13597018 0.0008443949 0.04477293 0.32712325 -0.11450208 0.17851381 0.07399087 -0.16349308 0.08514355 0.21682917 -0.03379817 -0.24194537 0.21210463 -0.30155855 -0.36425912 0.12708284 0.17009595 0.06372661 0.37350148 0.23210388 0.08680724 0.34457594 0.03954337 -0.0936029 -0.22807048 0.12958534 0.14738914 0.114083916 -0.18999521 -0.048605375 0.23412457 0.09123395 0.22190413 0.050975326 0.13267288 0.17164071 0.22507648 0.1471637 -0.0066316165 0.11209661 -0.054373454 0.011397283 -0.09501827 -0.11173026 0.10140406
15 -0.106881924 0.21394047 0.16769223 0.13744245 -0.051869225 -0.1658205 0.09180659 -0.010368678 0.04466639 -0.14678149 0.061888438 0.115518935 0.2990412 -0.13750476 0.06788496 0.06374723 -0.27336696 0.058658957 0.1933922 0.08778282 -0.038092144 0.05185064 0.30207288 -0.15448952 0.030479528 0.20277192 0.00010451187 0.02367239 0.270975 -0.005210726 -0.14864527 0.06646082 -0.42699504 -0.29713014 0.13267766 0.26158613 -0.04992021 0.36218026 0.2724151 -0.065197445 0.29890123 0.08449817 -0.07240781 -0.2690262 0.1206132 0.09031446 -0.053582348 -0.3569096 -0.1235168 0.07599202 0.2391375 0.027900511 0.13807067 0.18995787 0.21678084 0.12933287 0.09922034 -0.038267072 -0.033385668 -0.28964645 -0.078225106 -0.20307425 -0.059812088 -0.0008989776
19 -0.14205374 0.22105886 0.17580013 0.1368452 -0.089413464 -0.17699109 0.1187018 0.030938916 -0.020232974 -0.12818117 0.11856942 0.11120094 0.31089756 -0.12866348 0.12765124 -0.0016931987 -0.22996171 0.06266787 0.1908671 0.10191108 -0.054735243 0.061809625 0.27824563 -0.15676336 0.03441503 0.15483537 -0.050232492 0.06308382 0.29925337 -0.0003218204 -0.20492151 0.10856489 -0.42117015 -0.33591187 0.16043817 0.25376278 -0.026347117 0.40629303 0.2692695 -0.017136347 0.33672035 0.06969211 -0.06736447 -0.2678853 0.12351505 0.121430606 -0.029784635 -0.30644 -0.116148666 0.13790344 0.21877012 0.064493895 0.151786 0.16594379 0.23734738 0.16976129 0.14594066 -0.025258789 0.005168464 -0.24388357 -0.054690428 -0.1958907 -0.1028077 -0.020986423
16 -0.16124448 0.2692691 0.14598233 0.10340197 -0.080789365 -0.1785985 0.08660701 -0.018405152 0.03595053 -0.1631142 0.027196683 0.15303558 0.3456167 -0.19427015 0.10712389 -0.0026087866 -0.29906595 0.05550951 0.2344831 0.07621514 -0.07399076 0.033378188 0.3142503 -0.1767143 0.06129346 0.18306231 0.00032753145 0.06980035 0.42330596 0.04910959 -0.20863421 0.1447063 -0.46144283 -0.31244206 0.16136214 0.2831735 -0.091302395 0.4751949 0.28898337 -0.04166536 0.40563026 0.016466819 -0.05433145 -0.25225604 0.13812514 0.12876825 -0.04098527 -0.40070304 -0.15725747 0.07504022 0.22882292 0.036251117 0.18238142 0.19291875 0.19025199 0.14158481 0.11220281 0.0004806958 -0.001289746 -0.3662741 -0.108826295 -0.20435731 -0.0747399 -0.029010406
21 -0.1173832 0.15294409 0.1541415 0.074214764 -0.055317447 -0.20974392 0.09865569 0.022830576 -0.07180576 -0.11464079 0.042683553 0.1139027 0.24925146 -0.13228379 0.13319814 0.01693408 -0.21746923 0.052470226 0.17123267 0.11100979 0.0005268277 0.038020514 0.31888086 -0.1766637 0.13049105 0.15878285 -0.04869511 0.075254634 0.34886786 0.01553835 -0.18480502 0.14245643 -0.38597035 -0.30388623 0.123081274 0.24550281 -0.03553583 0.4561632 0.2553475 -0.018935783 0.3769222 0.03394885 -0.050855108 -0.24534702 0.105981395 0.10919636 0.0069182296 -0.34079826 -0.12033983 0.101697356 0.17875978 0.065590836 0.15378323 0.20194322 0.20025937 0.15060483 0.10450598 -0.033869453 -0.0011756659 -0.26741043 -0.055839222 -0.2049408 -0.11050693 0.003385129
27 -0.14033201 0.22398603 0.20090558 0.07592966 -0.10200026 -0.22605567 0.07460128 0.019093927 -0.0013774235 -0.1685919 0.06995986 0.120139495 0.35107958 -0.16638821 0.13958696 -0.073590934 -0.25306728 0.079515934 0.18197648 0.079456024 -0.065980755 0.021307489 0.32273057 -0.15601385 0.06466363 0.14147452 -0.033830475 0.1172228 0.3742398 0.03488445 -0.24584879 0.16070601 -0.44165334 -0.32927874 0.14581113 0.23057288 -0.087678716 0.4556766 0.29330173 0.00605907 0.38598764 0.055138346 -0.10343467 -0.25085098 0.14415179 0.15380469 0.018563174 -0.3536699 -0.11274069 0.12491963 0.17106777 0.09706633 0.13462631 0.18467869 0.21706688 0.20258619 0.09749784 0.009821272 0.025760641 -0.25196108 -0.07356549 -0.13873902 -0.083205424 0.030283593
12 0.17953499 -0.2133076 0.12899557 0.05542903 0.07487173 -0.17396389 0.03850992 0.14395468 -0.30593416 0.025242042 0.16085249 -0.13995309 -0.04581248 0.22441603 -0.10895895 0.18373987 -0.003184259 0.03596883 -0.105466165 0.1404961 0.35794908 0.04646616 0.41003495 -0.07356101 0.13698952 0.11872388 -0.33956334 -0.16976774 -0.35952252 -0.20103662 -0.009779778 0.012895356 -0.15424673 -0.29500416 0.12271756 0.08800065 0.21200673 0.118923455 0.21419947 0.03870515 -0.054239325 0.19598143 -0.13385525 -0.2762372 -0.0759508 -0.043621704 0.033209924 -0.014509571 -0.03037094 0.25191194 -0.07973545 0.20738265 0.015820164 0.1272274 0.3009492 0.23199661 0.14930528 -0.14377992 -0.018478753 0.12162524 0.16075203 -0.20925412 -0.11016106 0.12628415
